241 24
13 -0.143961 0.424641 0.606222 0.617874 -0.137015 0.152263 1.03657 0.890421 0.371919 -1.72338 -0.368021 -0.572486 0.322064 0.21962 0.707536 -0.181625 -0.539586 -0.966628 -0.126111 -0.351978 0.255664 -0.0448806 -0.162636 -0.334319
30 -0.0515748 0.238232 0.547607 0.52074 -0.400415 0.0934583 1.07084 0.709879 -0.0223539 -1.58523 -0.369805 -0.520884 0.43956 0.314243 0.702789 -0.344956 -0.586326 -0.579198 0.143626 -0.398274 0.0806247 -0.0946831 -0.0676749 -0.111677
104 0.130091 0.338369 0.681778 0.74962 -0.24647 0.0503029 0.464401 0.811538 0.0509237 -1.31853 -0.23141 -0.374338 0.507949 0.599544 0.469089 -0.34221 -0.825808 -0.758714 0.146229 -0.298138 0.401086 -0.122683 -0.35142 -0.0443287
58 0.292074 0.508214 0.506514 1.30336 0.204402 -0.60552 0.499254 0.346293 -0.470721 -1.31833 -0.256754 -0.723425 0.224782 0.764854 0.450406 -0.173899 -1.15878 -1.06659 0.184915 -0.463472 -0.151368 -0.179503 -0.343573 0.104303
88 0.164154 0.403712 0.431254 0.911438 0.165903 -0.38526 0.496949 0.200569 -0.249028 -1.18145 -0.413824 -0.647625 0.168084 0.557465 0.57842 -0.14141 -0.988597 -0.767104 0.217706 -0.302655 -0.137674 -0.164406 -0.280495 -0.0161709
78 0.17372 0.509286 0.603449 0.962627 0.183625 -0.429769 0.626876 0.202673 -0.205069 -1.53883 -0.517809 -0.838332 0.192171 0.613797 0.927702 -0.099825 -1.17592 -0.871295 0.311854 -0.284925 -0.140919 -0.32086 -0.351027 -0.200681
42 0.156467 0.692726 0.496737 1.00334 -0.0771175 -0.372558 0.826029 0.0550437 -0.28283 -1.16192 -0.531092 -0.902469 0.344901 0.573944 0.514115 -0.373357 -0.866432 -0.693535 0.161389 -0.655229 -0.324255 -0.017066 -0.240576 0.0188771
83 0.286387 0.535651 0.519977 0.739169 -0.011966 -0.092836 0.728139 0.202645 -0.143545 -1.1182 -0.430488 -0.660002 0.409458 0.607707 0.347656 -0.450884 -0.758635 -0.592741 -0.00447988 -0.487031 -0.200775 -0.122148 -0.326054 -0.110209
103 0.328025 0.576581 0.591875 0.814278 -0.073195 -0.209937 0.725729 -0.0232076 -0.0799798 -1.17491 -0.579632 -0.916674 0.534118 0.668496 0.349054 -0.567578 -0.765051 -0.553404 -0.0719987 -0.516781 -0.311725 -0.0567972 -0.447658 0.000346926
116 0.0591366 0.297368 0.625897 0.576386 -0.387304 0.0875709 0.824395 0.718598 -0.00478262 -1.41731 -0.229272 -0.379867 0.402556 0.362598 0.629528 -0.254934 -0.675088 -0.688028 0.169019 -0.405612 0.338865 -0.110307 -0.153783 -0.226737
48 0.0315966 0.344051 0.825137 0.613816 -0.385435 0.26727 0.814106 0.814761 0.28996 -1.55254 -0.533794 -0.517899 0.712372 0.54304 0.813643 -0.522477 -0.826282 -0.631872 0.172403 -0.296056 0.370562 -0.0996807 -0.378032 -0.0214255
52 0.128824 0.323639 0.67723 0.543455 -0.218935 0.0699886 0.597309 0.481728 0.134968 -1.22901 -0.37058 -0.409865 0.39735 0.45488 0.52949 -0.314676 -0.648981 -0.614038 0.0842998 -0.275534 0.228808 -0.0519791 -0.23513 -0.189971
51 0.166564 0.512034 0.802633 0.728561 -0.292375 0.209045 0.407517 0.78167 0.426242 -1.32983 -0.42106 -0.409607 0.635563 0.659623 0.460082 -0.450762 -0.732513 -0.758384 0.0324863 -0.284215 0.479093 -0.0668637 -0.474037 -0.0944023
23 0.407151 0.516915 0.664002 0.911569 -0.00184274 0.212534 0.419823 0.850385 0.477286 -1.44247 -0.450575 -0.569348 0.762177 0.822118 0.0450247 -0.557595 -0.69901 -0.850841 -0.272722 -0.407698 0.251197 -0.149582 -0.765505 -0.0633112
40 0.297882 0.774013 0.444403 0.724034 -0.156834 0.0708289 0.727915 0.305642 0.106779 -1.35424 -0.760931 -0.961548 0.584297 0.768418 0.290667 -0.786782 -0.794707 -0.590103 -0.0685167 -0.416877 -0.165146 -0.126972 -0.601949 -0.194883
102 0.390883 0.546775 0.543035 0.745438 -0.0196978 -0.021892 0.59748 0.346614 -0.0511333 -1.21361 -0.42394 -0.677018 0.531097 0.764198 0.170012 -0.564102 -0.733283 -0.699751 -0.111288 -0.521745 -0.15616 -0.219841 -0.537968 -0.13183
10 0.476304 0.718835 0.657096 0.804728 -0.0948136 -0.209254 0.828254 -0.0155592 -0.510916 -1.29627 -0.585173 -0.895653 0.489098 0.971425 0.389407 -0.765581 -1.13991 -0.607787 0.0775058 -0.697922 -0.413784 -0.288639 -0.457078 -0.237328
45 0.225823 0.701061 0.816679 0.786526 0.0967283 -0.142873 0.527309 0.231463 0.148213 -1.49628 -0.519132 -0.78904 0.436572 0.626565 0.713143 -0.242874 -0.991854 -0.899432 0.0520591 -0.340866 -0.000940084 -0.335748 -0.555367 -0.321551
5 0.403854 0.539843 0.687396 0.722979 -0.278931 -0.158766 0.593816 0.171405 -0.391484 -1.30005 -0.35277 -0.765318 0.445481 0.806496 0.501364 -0.576249 -1.12742 -0.623017 0.155907 -0.400377 -0.128547 -0.409751 -0.433051 -0.269736
43 0.00327906 0.552311 0.576481 0.630244 -0.040286 0.0504007 0.834026 0.512584 0.208713 -1.45614 -0.514901 -0.68315 0.35425 0.421573 0.751603 -0.329496 -0.777908 -0.786766 0.0487599 -0.263455 0.0363761 -0.159576 -0.342744 -0.261244
203 0.808361 -0.0372732 0.852853 1.05186 -0.260721 -0.080984 1.33489 0.356062 0.0520232 -0.816302 -0.0135004 -0.353312 0.409519 0.64744 0.400391 -0.132856 -1.02641 -0.814731 -0.386571 0.0889815 0.140018 0.0783952 0.483909 -0.413259
179 0.9905 -0.01439 1.08011 1.25082 -0.313199 -0.122803 1.57857 0.415541 0.0949664 -0.982349 -0.109068 -0.381033 0.504834 0.707721 0.431087 -0.263917 -1.15855 -1.02022 -0.425877 0.117772 0.151556 0.0193857 0.521393 -0.470842
197 0.984975 -0.0104485 1.11513 1.30895 -0.307266 -0.0571668 1.69199 0.455618 0.134076 -1.06758 -0.0619587 -0.410554 0.536554 0.768136 0.524371 -0.209579 -1.26272 -1.02494 -0.4061 0.122547 0.127834 0.0791188 0.560792 -0.513162
194 1.00083 -0.0281936 1.08915 1.34244 -0.318226 -0.0828591 1.65065 0.497248 0.139775 -1.04296 -0.0721747 -0.475533 0.527467 0.815579 0.436247 -0.209448 -1.27657 -1.05169 -0.424419 0.148705 0.104248 0.0868996 0.576191 -0.485966
190 0.803618 -0.0279716 0.875857 1.02692 -0.222489 -0.0459221 1.26371 0.31575 0.159197 -0.892816 -0.0993123 -0.288738 0.354951 0.609858 0.378602 -0.204705 -0.970233 -0.807017 -0.303741 0.121327 0.0773268 -0.00565023 0.455348 -0.406088
187 1.10192 0.0115052 1.23287 1.26045 -0.168449 -0.141254 1.39584 0.294378 0.248082 -1.01423 -0.365038 -0.342391 0.497787 0.65308 0.314729 -0.560488 -0.974612 -1.05425 -0.350803 0.177168 0.00766355 -0.175593 0.438663 -0.333949
199 0.907432 0.00485738 1.05787 1.22595 -0.209663 -0.124173 1.42401 0.379907 0.163564 -0.876362 -0.148538 -0.352705 0.479249 0.666406 0.391243 -0.277478 -1.05603 -0.920403 -0.377193 0.117124 0.0663379 -0.0060576 0.490263 -0.403567
171 0.903004 -0.0202458 1.03868 1.32715 -0.308682 -0.0191062 1.70636 0.448053 0.0964499 -1.0647 0.00179685 -0.414041 0.526825 0.765683 0.556313 -0.13358 -1.2516 -0.931409 -0.391982 0.091883 0.129879 0.0809286 0.550395 -0.538074
168 0.936236 -0.0221363 1.04455 1.27947 -0.292526 -0.114808 1.58123 0.416524 0.115827 -1.01841 -0.0785241 -0.384141 0.469134 0.746614 0.44237 -0.222569 -1.20377 -1.00561 -0.453135 0.115228 0.126131 0.0320136 0.520013 -0.455224
85 0.404679 0.468059 0.509572 0.708652 -0.195628 -0.165486 0.659565 0.0138832 -0.386058 -1.12962 -0.534621 -0.738069 0.365184 0.791192 0.380086 -0.565115 -0.97399 -0.511558 0.197636 -0.396798 -0.299195 -0.26197 -0.32196 -0.200397
89 0.484264 0.678136 0.712009 0.610856 -0.274822 -0.0556473 0.636744 -0.0274148 -0.367604 -1.23091 -0.616429 -1.01803 0.500037 0.86831 0.476466 -0.831198 -1.09574 -0.493284 0.0507112 -0.384714 -0.236072 -0.338813 -0.445017 -0.37272
9 0.501754 0.590402 0.669532 0.715311 -0.287243 -0.107542 0.826493 -0.000127191 -0.435822 -1.33762 -0.676094 -0.906864 0.558765 1.0339 0.426235 -0.857315 -1.0689 -0.596358 0.125415 -0.582663 -0.374747 -0.310664 -0.470162 -0.23737
53 0.100845 0.616467 0.760169 0.610366 -0.179112 -0.116112 0.532546 0.277548 -0.0961337 -1.28246 -0.467889 -0.695589 0.381273 0.664497 0.757729 -0.440756 -0.885578 -0.664815 0.193536 -0.368152 0.0505375 -0.212103 -0.377622 -0.279581
69 0.332508 0.498502 0.542997 0.786174 -0.186346 -0.0956961 0.771706 0.281108 -0.273012 -1.44325 -0.486418 -0.83785 0.545021 0.846556 0.179232 -0.661415 -0.700529 -0.683177 -0.038161 -0.526843 -0.291902 -0.368069 -0.682924 -0.0402788
109 0.134448 0.146181 0.625373 0.593504 -0.387351 0.183457 0.966339 0.704632 -0.0873644 -1.53822 -0.319139 -0.607509 0.715656 0.572139 0.411708 -0.536976 -0.650017 -0.599808 0.0145121 -0.464854 0.155689 -0.346828 -0.437293 0.043303
26 -0.012512 0.119718 0.686516 0.544848 -0.39057 0.325482 1.01087 0.802717 0.129806 -1.59898 -0.521994 -0.62202 0.759269 0.476418 0.689016 -0.582061 -0.689426 -0.528193 0.131335 -0.369595 0.229711 -0.190537 -0.352262 0.0712476
31 -0.0377888 0.229346 0.663848 0.523881 -0.493477 0.29897 1.14115 0.738983 0.0828681 -1.56549 -0.535147 -0.647589 0.787083 0.4923 0.762759 -0.664388 -0.652788 -0.447218 0.136214 -0.412058 0.118835 -0.257304 -0.334787 0.114706
29 0.0487711 0.490952 0.849143 0.699007 -0.137103 0.308681 0.672252 1.03077 0.576392 -1.57726 -0.522592 -0.454632 0.668394 0.604019 0.606841 -0.446488 -0.77858 -0.791249 -0.0316664 -0.337157 0.540224 0.020998 -0.487395 -0.138464
122 0.806788 0.000394694 0.558699 0.503865 -0.0148612 0.343639 0.862845 -0.0788934 0.295343 -1.31798 -0.41163 -0.231768 -0.0076721 0.576697 -0.0623426 -0.0849624 -0.66766 -0.702027 0.258034 -0.406463 0.303709 0.43885 -0.132906 -0.06091
118 1.00582 0.0296625 0.68295 0.654694 -0.0053016 0.483234 1.18731 -0.0600607 0.390924 -1.82501 -0.550875 -0.364107 -0.0306333 0.805353 -0.0933185 -0.111801 -0.824798 -0.957363 0.350355 -0.509996 0.459344 0.567034 -0.247032 -0.0780272
119 1.09031 0.0775494 0.658966 0.639049 -0.0953018 0.396492 1.09775 -0.0159795 0.349141 -1.74204 -0.545818 -0.365313 0.0790743 0.738707 0.00867581 -0.147109 -1.02766 -0.914874 0.422621 -0.66412 0.339528 0.680783 -0.290789 -0.093344
131 1.1515 0.0545244 0.683194 0.689155 -0.225919 0.360097 1.1947 0.027948 0.343157 -1.81768 -0.627451 -0.261928 0.139114 0.631173 0.041882 -0.0987207 -1.08104 -0.807592 0.383482 -0.661359 0.376001 0.618704 -0.317019 -0.29203
127 1.27518 0.0812483 0.772604 0.759517 -0.268683 0.376304 1.15614 0.032967 0.311272 -1.8067 -0.682897 -0.346068 0.210072 0.685182 0.122168 -0.149662 -1.25759 -0.920492 0.399309 -0.796496 0.338737 0.717388 -0.251239 -0.244277
136 1.06274 -0.0112827 0.652632 0.70765 -0.0196407 0.466301 1.16467 -0.0294574 0.373082 -1.73568 -0.474115 -0.358388 0.0623214 0.731316 -0.0480582 -0.166266 -0.952029 -0.965911 0.352784 -0.609352 0.3957 0.608116 -0.265463 -0.0761927
160 1.00857 0.0346571 0.64367 0.6309 0.0200596 0.434871 1.0993 -0.0158419 0.33522 -1.68326 -0.455514 -0.377753 -0.0297585 0.724538 -0.0643388 -0.17692 -0.855357 -0.904229 0.392525 -0.575089 0.380169 0.586495 -0.267543 -0.0196533
126 1.02757 -0.00625464 0.688711 0.748827 0.051238 0.471669 1.23801 -0.0411782 0.381678 -1.86832 -0.481787 -0.438635 -0.0195458 0.840516 -0.0855098 -0.243793 -0.876066 -0.998771 0.382789 -0.563507 0.428332 0.660042 -0.233566 0.0128202
158 1.10483 0.0643529 0.673126 0.685559 -0.1488 0.384702 1.07678 0.0144042 0.344555 -1.71681 -0.574896 -0.336141 0.170223 0.635929 0.107675 -0.1039 -1.05397 -0.814587 0.389261 -0.693705 0.316974 0.643147 -0.291781 -0.244046
129 1.07933 0.0289383 0.616695 0.637913 -0.181712 0.344345 1.05775 0.0205608 0.347332 -1.66737 -0.571953 -0.316652 0.154574 0.621416 0.0870522 -0.102549 -1.0481 -0.794714 0.39521 -0.709777 0.338286 0.648239 -0.313919 -0.215093
128 1.22089 0.0707793 0.70071 0.712848 -0.340857 0.272269 1.03824 0.103209 0.277788 -1.67173 -0.623616 -0.276017 0.27789 0.558427 0.225074 -0.0393791 -1.37232 -0.789249 0.383468 -0.933435 0.255075 0.635927 -0.337023 -0.400167
151 1.15758 0.0764632 0.668246 0.689033 -0.249651 0.33068 1.13455 0.0243194 0.292275 -1.70754 -0.665161 -0.276244 0.227216 0.543321 0.0951911 -0.0611938 -1.12674 -0.749994 0.330747 -0.678665 0.36586 0.63579 -0.276699 -0.275083
147 1.04963 0.0988406 0.643205 0.5677 -0.266522 0.324913 0.900469 0.0525786 0.199094 -1.49438 -0.571546 -0.255307 0.240339 0.500156 0.0746513 -0.0628438 -1.06459 -0.704638 0.329168 -0.727437 0.286753 0.552003 -0.207193 -0.220598
145 1.16529 0.0885735 0.718719 0.594817 -0.349305 0.329301 0.953851 0.0791771 0.205688 -1.50915 -0.624292 -0.244122 0.291258 0.501653 0.149286 -0.0802372 -1.23509 -0.760654 0.36635 -0.854703 0.299969 0.642175 -0.23029 -0.260747
143 1.00513 0.0520776 0.669098 0.62931 -0.162939 0.410092 0.95883 -0.0103847 0.271391 -1.57959 -0.552552 -0.32482 0.118594 0.604868 0.00860007 -0.143604 -0.949456 -0.784461 0.336102 -0.634239 0.347357 0.583829 -0.197731 -0.0891373
148 1.11471 0.0705054 0.70325 0.689544 -0.253764 0.339365 1.01008 0.0638458 0.246921 -1.6296 -0.602002 -0.252699 0.239745 0.540627 0.12752 -0.0576114 -1.12987 -0.753259 0.329532 -0.744442 0.316018 0.600755 -0.2643 -0.28937
132 1.13565 0.0543776 0.642228 0.666215 -0.257785 0.366407 1.02122 0.0348777 0.277353 -1.6816 -0.57436 -0.315272 0.197165 0.64712 0.09279 -0.121725 -1.16966 -0.904148 0.431992 -0.78156 0.31716 0.70129 -0.288333 -0.231611
121 1.159 0.0255276 0.739418 0.758757 -0.0826698 0.47018 1.30055 -0.0355877 0.411763 -1.95734 -0.563071 -0.380761 0.0879238 0.796695 -0.0383609 -0.13222 -1.07124 -0.994801 0.429764 -0.667843 0.448346 0.691722 -0.299462 -0.165891
138 1.11316 0.0307549 0.64516 0.636846 -0.23752 0.398059 1.02038 0.00336069 0.324179 -1.67532 -0.571891 -0.346818 0.257132 0.593993 0.151985 -0.107505 -1.13892 -0.804999 0.401214 -0.785246 0.293992 0.680009 -0.258757 -0.254018
54 0.317042 0.71478 0.51379 0.866737 -0.0947131 0.120831 0.695827 0.743827 0.239527 -1.34301 -0.47378 -0.71281 0.597197 0.746535 0.100558 -0.595952 -0.646085 -0.729861 -0.209216 -0.608316 0.0882527 -0.146958 -0.608492 -0.133871
94 0.333831 0.454624 0.492547 0.750116 -0.183847 -0.08767 0.830697 0.19986 -0.326862 -1.23467 -0.503271 -0.822119 0.587492 0.826567 0.196108 -0.708162 -0.77523 -0.511464 -0.0219573 -0.540172 -0.349215 -0.216887 -0.463269 -0.0331548
112 0.414376 0.251837 0.612761 0.790423 0.101759 0.00782902 0.412988 0.430223 -0.00164834 -1.26674 -0.328521 -0.637338 0.609944 0.643596 -0.0223888 -0.360948 -0.597754 -0.848603 -0.307036 -0.434927 -0.0386548 -0.341393 -0.654276 -0.0429163
7 0.324251 0.318042 0.480349 0.60599 -0.101328 -0.0275772 0.599053 0.224846 -0.037545 -1.0638 -0.394091 -0.510285 0.362062 0.530363 0.26393 -0.368988 -0.666422 -0.523509 -0.01119 -0.32595 -0.0533103 -0.0745367 -0.257914 -0.12316
1 0.283881 0.537329 0.500335 0.845191 -0.320967 -0.109297 0.79588 0.14162 -0.285298 -1.28221 -0.465185 -0.834895 0.519964 0.72126 0.445472 -0.541241 -0.925448 -0.553887 0.186076 -0.523035 -0.215771 -0.219435 -0.35181 -0.115681
6 0.142915 0.283919 0.598482 0.592484 -0.395619 0.103876 0.876194 0.594822 -0.152846 -1.4272 -0.280115 -0.586404 0.536139 0.515541 0.565709 -0.425503 -0.812197 -0.591438 0.111566 -0.397748 0.130154 -0.342374 -0.268953 -0.164436
4 0.154269 0.261517 0.58643 0.699291 -0.504781 0.0788596 0.810419 0.89778 -0.267484 -1.55142 -0.0274293 -0.476653 0.534884 0.529599 0.471172 -0.341548 -0.858321 -0.840136 0.140931 -0.469773 0.306266 -0.374477 -0.2697 -0.241479
37 0.460791 0.43376 0.527153 0.860536 0.0721902 0.13023 0.441901 0.632673 0.345103 -1.25062 -0.362447 -0.606995 0.607501 0.72235 -0.084528 -0.41974 -0.565967 -0.822811 -0.347628 -0.408915 0.0706912 -0.225028 -0.75802 -0.00137184
25 0.629426 0.282251 0.654797 1.03216 0.154764 0.0186176 0.390642 0.483216 0.0644447 -1.41913 -0.34762 -0.712404 0.823411 0.914064 -0.27147 -0.488892 -0.651219 -0.939152 -0.489347 -0.508011 -0.11933 -0.382323 -0.967527 0.101125
115 0.180849 0.387045 0.430011 0.688194 0.024747 0.252729 0.520984 0.811377 0.45649 -1.23125 -0.350928 -0.443396 0.508405 0.492249 0.0744689 -0.361409 -0.48166 -0.722684 -0.253942 -0.313538 0.249309 -0.0789662 -0.519765 -0.0437488
66 0.264992 0.552457 0.467472 0.621227 -0.211549 -0.061636 0.732629 0.120615 -0.200173 -1.08696 -0.538139 -0.76596 0.420881 0.63451 0.44794 -0.608526 -0.813879 -0.44464 0.106488 -0.402342 -0.245504 -0.234681 -0.333936 -0.120951
67 0.348007 0.68018 0.545997 0.824812 -0.147986 -0.237699 0.928134 -0.0981484 -0.256265 -1.25286 -0.685842 -1.05942 0.548136 0.763083 0.354505 -0.678615 -0.839263 -0.484065 -0.0137819 -0.625702 -0.467597 -0.0863829 -0.442616 -0.0105215
201 0.854453 0.00451664 0.912343 1.00727 -0.142722 -0.121309 1.16589 0.312733 0.172187 -0.882905 -0.221334 -0.347598 0.407841 0.608693 0.262455 -0.359697 -0.850219 -0.86512 -0.262437 0.139951 -0.0181496 -0.0886832 0.387568 -0.314169
185 1.25117 -0.0344916 1.29508 1.1978 -0.0615612 -0.187894 1.21199 0.109658 0.471171 -1.18292 -0.61819 -0.186642 0.34596 0.562235 0.204995 -0.841431 -0.796772 -1.17977 -0.315524 0.273516 -0.17051 -0.429119 0.301433 -0.237864
170 1.24347 -0.0253515 1.32753 1.28857 -0.0952445 -0.221021 1.32515 0.195823 0.357578 -1.19933 -0.575723 -0.262894 0.428994 0.61545 0.283164 -0.825996 -0.839783 -1.13572 -0.30667 0.221762 -0.161223 -0.380549 0.326046 -0.250944
169 0.943393 -0.0246417 1.06181 1.13342 -0.203553 -0.114455 1.33139 0.279016 0.160013 -0.923775 -0.205379 -0.258995 0.438504 0.550854 0.403812 -0.418586 -0.88999 -0.88036 -0.347856 0.137196 0.0249672 -0.0999327 0.399682 -0.356006
188 1.13365 0.00953384 1.19955 1.18931 -0.122179 -0.143922 1.26155 0.185319 0.350151 -1.17197 -0.476684 -0.228455 0.364768 0.602948 0.271537 -0.681568 -0.774103 -1.04506 -0.292877 0.156403 -0.100916 -0.352714 0.355589 -0.296274
184 1.17166 -0.0101788 1.21394 1.05614 -0.0338376 -0.15882 1.06205 -0.00365616 0.579062 -1.29463 -0.649079 -0.153028 0.200613 0.550506 0.159826 -0.831369 -0.647278 -1.03054 -0.256657 0.256822 -0.250395 -0.520311 0.312756 -0.254981
204 1.03961 -0.0813996 1.16136 1.12895 -0.0614542 -0.139633 1.13765 0.0993814 0.410144 -1.07011 -0.471669 -0.197974 0.306957 0.501145 0.220597 -0.684458 -0.735137 -0.934214 -0.30024 0.241544 -0.146671 -0.394969 0.330019 -0.289855
140 0.914551 0.0148033 0.55979 0.554649 -0.136724 0.357911 0.891896 -0.0130101 0.272419 -1.48732 -0.480354 -0.308096 0.214514 0.548825 0.0857734 -0.143358 -0.945509 -0.747347 0.310496 -0.617349 0.29597 0.582332 -0.208981 -0.148335
135 0.917282 0.0020304 0.601399 0.58259 -0.0424066 0.376762 0.899632 -0.0319822 0.309095 -1.41344 -0.434148 -0.242389 0.0630753 0.620401 -0.00277839 -0.0740996 -0.772662 -0.763 0.301743 -0.512741 0.349433 0.514962 -0.212043 -0.133998
229 0.700402 -0.383691 0.482504 0.663421 0.293046 -0.560185 0.591421 0.525056 -0.0532919 -1.97469 -0.730015 -0.248349 0.764534 0.538604 0.157838 -0.616391 -0.825665 -0.333704 -0.117202 -0.475205 -0.215588 0.453223 0.453343 -0.418162
231 0.751276 -0.350337 0.714596 0.477236 0.409683 -0.366759 0.652167 0.382918 0.137819 -2.23436 -0.645848 -0.497556 0.894015 0.63374 0.230501 -0.562529 -0.900882 -0.190184 0.0542516 -0.489916 -0.450986 0.315962 0.669429 -0.13619
237 0.728265 -0.207544 0.9501 0.388853 0.394975 -0.155107 0.693731 0.240984 0.30666 -2.29733 -0.541627 -0.619934 0.924145 0.6252 0.218649 -0.523664 -0.935631 -0.0964626 0.169888 -0.486306 -0.595312 0.13556 0.772011 0.0882001
239 0.590076 -0.201103 0.622191 0.381673 0.272343 -0.24174 0.52482 0.273103 0.155929 -1.73361 -0.45882 -0.427837 0.652409 0.481789 0.152458 -0.437433 -0.708515 -0.123958 0.0633527 -0.375015 -0.382823 0.225741 0.539728 -0.0636743
232 0.743468 -0.274933 0.800334 0.472752 0.379623 -0.300958 0.684871 0.312447 0.188358 -2.22317 -0.578996 -0.546232 0.889637 0.607441 0.194785 -0.580378 -0.926893 -0.136869 0.130434 -0.472615 -0.50149 0.254798 0.688802 -0.106868
211 0.767313 -0.404436 0.480289 0.899858 0.254905 -0.627928 0.65844 0.636116 -0.175262 -2.0116 -0.806398 -0.266555 0.722346 0.560745 0.137861 -0.698745 -0.81101 -0.445361 -0.123054 -0.546252 -0.198708 0.517141 0.394371 -0.488786
216 0.721608 -0.413903 0.446372 0.836939 0.249371 -0.664512 0.64296 0.640929 -0.183457 -1.88599 -0.797258 -0.214124 0.720133 0.57904 0.192449 -0.675144 -0.865542 -0.538948 -0.191008 -0.528091 -0.148292 0.570007 0.329146 -0.529225
210 0.765349 -0.442272 0.417138 0.979597 0.214516 -0.693641 0.666498 0.713481 -0.257422 -1.98074 -0.882987 -0.214222 0.71845 0.572699 0.160642 -0.726523 -0.896128 -0.588814 -0.211205 -0.557623 -0.0663776 0.598427 0.274324 -0.617716
207 0.803478 -0.36759 0.464333 0.919815 0.185289 -0.52832 0.586949 0.595191 -0.176154 -1.80956 -0.733748 -0.274861 0.679834 0.501627 0.123838 -0.571322 -0.679592 -0.367692 -0.118171 -0.518172 -0.205204 0.466223 0.394617 -0.416533
213 0.838288 -0.406782 0.582111 0.944664 0.263373 -0.597964 0.712577 0.638366 -0.134788 -2.187 -0.86727 -0.332943 0.730243 0.608345 0.204902 -0.584549 -0.760802 -0.390454 -0.0995435 -0.571515 -0.251196 0.528099 0.50543 -0.484343
208 0.785731 -0.438845 0.488175 0.891661 0.287293 -0.65983 0.6813 0.689278 -0.169934 -2.09875 -0.864261 -0.279119 0.804545 0.625373 0.193882 -0.685852 -0.866832 -0.46239 -0.17771 -0.569245 -0.2125 0.563067 0.424348 -0.513455
65 0.0603838 0.380968 0.441455 0.550977 -0.11308 0.109314 0.830645 0.550185 0.0911565 -1.24238 -0.436969 -0.622821 0.377093 0.440202 0.452477 -0.417051 -0.575336 -0.651428 -0.0480565 -0.344642 0.0428393 -0.102238 -0.27227 -0.113283
15 0.123755 0.676257 0.428162 0.770034 -0.028972 0.297277 1.03714 0.964726 0.545974 -1.58679 -0.696987 -0.823775 0.483408 0.513652 0.441419 -0.61747 -0.603422 -0.831253 -0.207853 -0.347987 0.161221 0.0303462 -0.4751 -0.129338
62 -0.018483 0.51617 0.609945 0.582242 -0.0916067 0.0963903 0.604864 0.553115 0.23548 -1.29426 -0.462666 -0.540504 0.417568 0.410679 0.619234 -0.332239 -0.665321 -0.663733 0.0496517 -0.28124 0.186995 -0.126934 -0.367794 -0.180912
74 -0.0459793 0.535414 0.527874 0.776643 -0.290793 -0.025593 1.0243 0.890965 0.00741914 -1.59418 -0.219958 -0.674701 0.323331 0.30197 0.521966 -0.242133 -0.612409 -0.899063 -0.0562119 -0.64854 0.245075 -0.0664834 -0.156018 -0.10008
14 -0.0491331 0.488676 0.587691 0.642297 -0.27973 0.160148 0.947415 0.959936 0.343171 -1.58616 -0.330541 -0.511072 0.335395 0.319995 0.628904 -0.313562 -0.53986 -0.912524 -0.0792505 -0.340512 0.409962 0.081797 -0.141172 -0.226508
17 -0.203108 0.528421 0.640958 0.584966 -0.239902 0.0916231 0.875106 0.826694 0.368141 -1.6753 -0.294051 -0.470199 0.291005 0.198537 0.785915 -0.192146 -0.539139 -0.943763 0.0100953 -0.379347 0.281414 0.00840028 -0.0890061 -0.351656
19 -0.145917 0.707216 0.749407 0.542282 -0.201896 0.00161884 0.726534 0.459564 0.437965 -1.62382 -0.532446 -0.624346 0.325412 0.365094 0.90916 -0.249822 -0.705241 -0.793547 0.00223748 -0.207842 0.203756 -0.0445999 -0.228579 -0.444353
55 0.00883532 0.19151 0.570926 0.599646 -0.423692 0.00167199 1.01122 0.640081 -0.463688 -1.55463 -0.209749 -0.580255 0.412293 0.3747 0.601189 -0.361422 -0.702302 -0.668182 0.230767 -0.550528 -0.0305825 -0.288807 -0.10599 -0.21788
111 0.480427 0.401929 0.576559 0.832747 0.0246293 -0.00777311 0.514371 0.34156 0.0692848 -1.2372 -0.398848 -0.685776 0.667484 0.820209 -0.139707 -0.565121 -0.530882 -0.677075 -0.315446 -0.491934 -0.105473 -0.253782 -0.79092 0.0590223
98 0.376255 0.381404 0.569126 0.856312 -0.100964 -0.073435 0.866516 0.246116 -0.19412 -1.32092 -0.424432 -0.858927 0.684372 0.789935 -0.0331945 -0.670133 -0.606103 -0.60091 -0.276531 -0.619258 -0.262426 -0.214576 -0.705428 0.181724
72 0.337861 0.74726 0.596447 0.990992 -0.0274332 -0.248709 0.801527 0.0159981 -0.0198381 -1.30848 -0.638679 -1.01514 0.499418 0.642788 0.458922 -0.441251 -0.912746 -0.665741 0.0590217 -0.570939 -0.352887 -0.08656 -0.445251 -0.0323605
71 0.179645 0.569694 0.443312 0.736996 -0.205634 0.0432818 0.789271 0.422378 0.160358 -1.27899 -0.556644 -0.85806 0.532884 0.591992 0.410227 -0.5393 -0.645234 -0.528378 0.00055479 -0.418411 -0.116608 -0.162896 -0.487525 0.0342202
41 0.420248 0.387239 0.584002 0.797182 -0.222674 -0.0951595 0.803749 0.0943194 -0.300728 -1.25293 -0.572288 -0.789529 0.708935 0.902785 0.235318 -0.748968 -0.802342 -0.518835 -0.0395236 -0.607445 -0.327802 -0.262964 -0.575861 0.0486539
3 0.308567 0.516983 0.499103 0.851159 -0.163669 -0.131472 0.835896 0.0577864 -0.340829 -1.20757 -0.549052 -0.934772 0.520615 0.760584 0.285854 -0.63054 -0.850684 -0.611407 -0.0172328 -0.662989 -0.399877 -0.175772 -0.414375 -0.0240917
100 0.00798471 0.379731 0.523201 0.504692 -0.413556 0.133864 1.19497 0.5695 -0.000929262 -1.4565 -0.515679 -0.722972 0.575611 0.366183 0.677446 -0.564835 -0.60254 -0.44108 0.105189 -0.453554 -0.0118698 -0.155192 -0.234964 0.0212402
28 -0.0490967 0.119882 0.526583 0.447617 -0.382227 0.32835 1.30189 0.607068 0.0481656 -1.56751 -0.684562 -0.884792 0.701345 0.384442 0.71863 -0.718873 -0.673694 -0.374032 0.122631 -0.253496 -0.0416896 -0.26697 -0.267777 0.16667
95 0.734476 0.212203 0.660664 1.03889 0.312443 0.0740137 0.150685 0.675797 0.366826 -1.319 -0.190825 -0.462915 0.708613 0.778426 -0.343281 -0.249519 -0.647081 -1.09835 -0.606633 -0.364898 0.101261 -0.316884 -0.898066 0.00672833
20 0.593609 0.176399 0.747254 1.01815 0.29709 0.14683 0.225352 0.82974 0.328284 -1.49296 -0.202912 -0.528348 0.780595 0.749748 -0.222321 -0.291186 -0.705858 -1.17738 -0.580413 -0.422272 0.199378 -0.388592 -0.861763 -0.0582592
27 0.0347374 0.261315 0.594675 0.632053 -0.214803 0.145225 0.778205 0.762843 0.186641 -1.46588 -0.346704 -0.519478 0.582987 0.437351 0.407563 -0.325039 -0.567107 -0.692147 -0.0940747 -0.403268 0.183322 -0.177748 -0.373508 -0.0742045
220 0.72112 -0.40482 0.43078 0.819331 0.299402 -0.714977 0.680567 0.655354 -0.120429 -2.07306 -0.821185 -0.193935 0.77741 0.596933 0.200418 -0.775312 -0.949833 -0.557885 -0.203896 -0.517373 -0.0909703 0.546319 0.334927 -0.580928
228 0.713323 -0.423994 0.417874 0.890546 0.266221 -0.752099 0.649327 0.691387 -0.203697 -1.99391 -0.824762 -0.167758 0.741396 0.551838 0.175882 -0.774931 -0.928945 -0.560221 -0.237844 -0.52537 -0.0821124 0.59501 0.374623 -0.602398
221 0.692692 -0.399219 0.412736 0.934008 0.269048 -0.744023 0.674669 0.716788 -0.196441 -2.00762 -0.855654 -0.177926 0.725325 0.579001 0.204749 -0.811786 -0.926849 -0.596974 -0.281109 -0.536036 -0.0325981 0.58936 0.312672 -0.67696
225 0.698732 -0.414301 0.42747 0.868921 0.248382 -0.668913 0.618264 0.613975 -0.207228 -1.87693 -0.799317 -0.178346 0.69248 0.540882 0.176865 -0.718301 -0.826686 -0.510021 -0.214882 -0.510774 -0.0880651 0.528324 0.304053 -0.558645
230 0.662417 -0.319408 0.547466 0.566295 0.285819 -0.404424 0.572729 0.360545 0.0542581 -1.76861 -0.57606 -0.316925 0.6816 0.503315 0.180505 -0.485575 -0.721718 -0.188899 -0.0268421 -0.397522 -0.328307 0.355614 0.531717 -0.247468
215 0.723056 -0.207535 0.816877 0.532528 0.386947 -0.267896 0.647829 0.371782 0.207057 -2.22015 -0.607634 -0.502356 0.858967 0.584897 0.191706 -0.55788 -0.842499 -0.178497 0.0261997 -0.476185 -0.463708 0.241111 0.675251 -0.0815051
236 0.645328 -0.242268 0.66847 0.390199 0.31094 -0.237461 0.571896 0.284178 0.194578 -1.87209 -0.505154 -0.440524 0.706245 0.530695 0.188182 -0.467798 -0.751516 -0.128497 0.06418 -0.408038 -0.413675 0.204959 0.561424 -0.0484844
153 1.07567 0.0260922 0.614631 0.65265 -0.253467 0.222775 0.971793 0.0923583 0.23598 -1.53588 -0.521989 -0.206184 0.252707 0.463739 0.190341 0.0167377 -1.22125 -0.645613 0.289128 -0.800201 0.262743 0.505657 -0.331832 -0.376208
152 1.19024 0.0102666 0.634453 0.684198 -0.335112 0.123098 1.00877 0.125467 0.203342 -1.57381 -0.563373 -0.158545 0.30128 0.423029 0.283096 0.059271 -1.38247 -0.604626 0.296893 -0.918123 0.182625 0.478082 -0.374913 -0.499333
150 1.11285 0.0592178 0.605924 0.655509 -0.222431 0.254929 0.990285 0.0954827 0.23856 -1.5647 -0.565006 -0.259699 0.245982 0.534778 0.173078 -0.0755503 -1.14589 -0.680959 0.273729 -0.732823 0.264461 0.538509 -0.275582 -0.29744
57 0.0485003 0.347366 0.613605 0.662509 -0.245122 0.0881349 0.914064 0.83789 0.159492 -1.45092 -0.299874 -0.5065 0.373987 0.386047 0.574069 -0.338134 -0.642462 -0.820287 0.00566717 -0.43723 0.328746 -0.0206716 -0.174509 -0.130742
68 0.253716 0.467891 0.572897 0.691154 -0.213752 -0.0512232 0.732815 0.255921 -0.1094 -1.25925 -0.501112 -0.731965 0.539449 0.678781 0.406103 -0.593631 -0.729619 -0.619371 0.0274942 -0.44166 -0.132898 -0.20282 -0.465332 -0.111785
106 -0.0127862 0.378958 0.626409 0.647839 -0.141052 0.0607983 0.866496 0.67597 0.239641 -1.46852 -0.362475 -0.522848 0.32849 0.341307 0.705029 -0.192128 -0.672656 -0.805346 0.0945922 -0.373485 0.242332 -0.0656681 -0.244128 -0.191222
32 0.0722462 0.15083 0.645735 0.482713 -0.303976 0.187772 0.897387 0.691011 -0.170406 -1.51408 -0.268285 -0.677076 0.558765 0.394954 0.492551 -0.356222 -0.6548 -0.672726 0.0556272 -0.3747 0.140445 -0.467547 -0.347774 -0.200055
146 0.883384 0.042756 0.511242 0.4612 -0.208392 0.26839 0.763876 0.0652834 0.183063 -1.24651 -0.4449 -0.190044 0.182217 0.412311 0.0870327 -0.0524263 -0.912012 -0.614481 0.308612 -0.64161 0.217776 0.517494 -0.2238 -0.229772
164 0.91512 0.0219992 0.5076 0.519426 -0.170664 0.252502 0.914256 0.0348258 0.258216 -1.38661 -0.5009 -0.199579 0.115905 0.451645 0.0781284 -0.0416201 -0.932821 -0.591755 0.337355 -0.63874 0.289416 0.504909 -0.315 -0.249677
133 1.18867 0.017439 0.65032 0.694913 -0.305293 0.20896 1.04088 0.0988258 0.242303 -1.61306 -0.612541 -0.195905 0.275084 0.470919 0.2272 0.00659899 -1.33778 -0.714667 0.314463 -0.843331 0.253176 0.553627 -0.380863 -0.444696
154 0.920297 0.0215474 0.508346 0.550339 -0.223402 0.184936 0.837783 0.0805939 0.200165 -1.29017 -0.460071 -0.175054 0.217025 0.415934 0.157127 -0.00148195 -1.02539 -0.582459 0.253293 -0.65282 0.196293 0.430689 -0.280105 -0.331174
38 0.450716 0.442223 0.559531 1.01641 0.207369 -0.401748 0.358697 0.288355 -0.365981 -1.23485 -0.273873 -0.726411 0.316662 0.875028 0.354183 -0.283278 -1.11371 -0.940368 0.00293761 -0.351885 -0.140825 -0.433716 -0.581825 -0.0428968
21 0.650841 0.334355 0.644026 1.08937 0.356621 -0.0257226 0.166079 0.693301 0.246081 -1.33448 -0.219482 -0.524124 0.685966 0.872184 -0.217486 -0.331525 -0.823709 -1.13617 -0.498436 -0.35711 0.080371 -0.376491 -0.948725 0.0324502
117 0.703895 0.0994804 0.697432 0.977909 0.273808 0.128128 0.152661 0.672804 0.382615 -1.31933 -0.195446 -0.411567 0.781257 0.776908 -0.353989 -0.312088 -0.596268 -1.06345 -0.570919 -0.413183 0.129675 -0.276785 -0.888485 0.0320264
86 -0.0393908 0.3625 0.658573 0.603682 -0.160755 -0.04801 0.714599 0.554368 0.00394644 -1.45843 -0.303798 -0.540128 0.244204 0.383579 0.751335 -0.153413 -0.750829 -0.819745 0.190855 -0.34305 0.18795 -0.149684 -0.193327 -0.262374
91 0.346997 0.483391 0.463127 0.74852 -0.0601682 -0.233308 0.765784 0.0834658 -0.408783 -1.1284 -0.42798 -0.772843 0.435516 0.789882 0.305705 -0.6071 -0.873384 -0.580827 0.0315654 -0.522359 -0.346617 -0.20826 -0.394092 -0.0485104
226 0.66401 -0.373155 0.44627 0.768307 0.329686 -0.694635 0.60235 0.687728 -0.109057 -2.06593 -0.765911 -0.17397 0.754813 0.518907 0.168231 -0.701491 -0.885898 -0.49018 -0.213586 -0.523134 -0.140917 0.509848 0.446846 -0.526116
224 0.620467 -0.338216 0.433208 0.7454 0.232468 -0.607831 0.601692 0.590127 -0.0951672 -1.84956 -0.71912 -0.189629 0.632312 0.486331 0.181779 -0.645242 -0.845383 -0.505671 -0.162062 -0.451693 -0.0586066 0.475027 0.346468 -0.527697
209 0.757918 -0.398805 0.425554 0.999359 0.225962 -0.729739 0.633154 0.698176 -0.236279 -2.07275 -0.895466 -0.185926 0.740949 0.575153 0.151002 -0.757705 -0.881769 -0.527368 -0.261208 -0.589677 -0.118208 0.57214 0.368825 -0.592085
47 -0.118463 0.621079 0.670948 0.568889 -0.0769867 -0.0481625 0.918525 0.454109 0.29689 -1.67167 -0.478016 -0.682639 0.333531 0.271705 0.94061 -0.157365 -0.79941 -0.898042 0.136539 -0.26242 0.0282708 -0.190019 -0.234079 -0.395432
84 -0.101949 0.499807 0.616541 0.713892 -0.401054 -0.086087 1.08824 0.612799 -0.302104 -1.67063 -0.308534 -0.60215 0.306927 0.366615 0.794701 -0.349477 -0.674322 -0.777378 0.248581 -0.585898 -0.0459684 -0.0905754 -0.0167188 -0.232473
107 0.0493831 0.341618 0.54019 0.553143 -0.255177 0.0247993 0.951558 0.549741 -0.170836 -1.37581 -0.274419 -0.526078 0.315309 0.322605 0.601238 -0.300601 -0.583937 -0.663667 0.106388 -0.500052 9.86826e-05 -0.172263 -0.136237 -0.244851
108 0.081478 0.490575 0.558293 0.57295 -0.188763 -0.00180687 1.02692 0.49826 -0.193864 -1.38899 -0.324218 -0.654677 0.365279 0.382247 0.587209 -0.370177 -0.687598 -0.71439 0.0628102 -0.601376 -0.0450893 -0.2181 -0.238563 -0.287927
87 -0.0128854 0.273112 0.527781 0.653119 -0.355613 -0.061081 1.07433 0.553178 -0.36547 -1.5919 -0.318372 -0.63579 0.306549 0.375741 0.750444 -0.331016 -0.694971 -0.767932 0.256614 -0.563083 0.00621885 -0.177352 -0.0732324 -0.166893
105 0.0433305 0.263867 0.578663 0.623152 -0.14802 0.181939 0.727553 0.833187 0.176711 -1.40277 -0.32646 -0.515338 0.461725 0.385014 0.309781 -0.310619 -0.477609 -0.686394 -0.0921989 -0.423194 0.327741 -0.109119 -0.379823 -0.0432841
63 0.116898 0.655311 1.04692 0.657668 -0.122983 0.0110036 0.328699 0.49432 0.429813 -1.55983 -0.503827 -0.487955 0.480751 0.621972 0.832091 -0.308086 -0.929465 -0.836929 0.116725 -0.226342 0.399404 -0.0618742 -0.415006 -0.438618
73 0.217155 0.766299 0.434739 0.822287 -0.174927 -0.0275684 0.713811 0.305898 0.122272 -1.26054 -0.602338 -0.862466 0.505536 0.609807 0.319619 -0.579616 -0.658388 -0.559043 -0.00531758 -0.506057 -0.156842 -0.0679121 -0.475036 -0.0453916
93 0.295791 0.313486 0.636173 0.647645 -0.00120765 0.0416546 0.57274 0.402688 -0.13137 -1.37677 -0.359953 -0.824094 0.609863 0.594825 0.168556 -0.410523 -0.634633 -0.805668 -0.193571 -0.418308 -0.068816 -0.454572 -0.653457 -0.0923587
113 0.0948224 0.315317 0.582093 0.577291 -0.0402287 0.192413 0.660372 0.780503 0.314666 -1.32183 -0.330023 -0.52373 0.475169 0.389156 0.361948 -0.336606 -0.563356 -0.765204 -0.152114 -0.301227 0.287625 -0.154968 -0.375381 -0.120301
101 0.213683 0.420349 0.499224 0.723349 -0.189178 -0.164809 0.855716 0.393498 -0.324154 -1.31004 -0.305976 -0.678353 0.279724 0.572947 0.426126 -0.441023 -0.690065 -0.736008 0.0619931 -0.599833 -0.0882326 -0.152525 -0.25611 -0.0622196
206 0.840563 -0.0545301 0.879989 0.980649 -0.174077 -0.0732023 1.20967 0.260963 0.244193 -0.898563 -0.203225 -0.255177 0.34617 0.567821 0.278252 -0.372479 -0.875118 -0.84114 -0.288543 0.173163 -0.0292127 -0.098342 0.429243 -0.329916
177 0.874988 -0.0131939 0.963703 1.13355 -0.249435 -0.0647172 1.40922 0.373202 0.171502 -1.03346 -0.141532 -0.343717 0.40312 0.663456 0.424754 -0.292084 -1.05207 -0.921612 -0.358065 0.0958936 0.0378253 0.0129214 0.484816 -0.430472
176 0.916701 -0.0289612 1.00059 1.12795 -0.175081 -0.0652615 1.33038 0.232936 0.2823 -1.12007 -0.217297 -0.27506 0.320056 0.605931 0.34259 -0.40757 -0.985494 -0.894898 -0.296343 0.167386 -0.0556361 -0.141524 0.461516 -0.385888
175 0.949761 -0.0384464 1.08307 1.1237 -0.130038 -0.109191 1.27898 0.212301 0.380788 -1.14377 -0.340614 -0.251851 0.352605 0.612681 0.284141 -0.539554 -0.898367 -0.924994 -0.287983 0.174698 -0.0910972 -0.263783 0.423407 -0.345924
183 1.17916 -0.0492886 1.22907 1.13456 -0.0545262 -0.151123 1.12642 0.0123637 0.637223 -1.38476 -0.692715 -0.177064 0.193075 0.575505 0.133561 -0.846178 -0.702807 -1.095 -0.222022 0.323952 -0.261671 -0.557843 0.33527 -0.258611
192 1.13671 -0.0680286 1.11575 1.21498 -0.15196 -0.151943 1.37784 0.238318 0.404846 -1.22899 -0.432017 -0.304729 0.353461 0.673151 0.236981 -0.619502 -0.963372 -1.09716 -0.320748 0.246007 -0.132238 -0.318284 0.425051 -0.309684
182 1.13026 -0.0719235 1.18286 1.13081 -0.0675923 -0.146785 1.16214 0.0940243 0.466447 -1.12452 -0.556054 -0.228318 0.302143 0.590189 0.168837 -0.761878 -0.743106 -1.02897 -0.253987 0.258281 -0.148005 -0.375323 0.346125 -0.244985
189 0.979207 -0.0427381 0.990503 0.989241 -0.0907213 -0.149991 1.01701 0.118826 0.381104 -0.962874 -0.45286 -0.177719 0.238563 0.482512 0.163613 -0.604716 -0.679649 -0.893225 -0.266282 0.191517 -0.154663 -0.309505 0.300506 -0.235723
202 1.16423 -0.0407326 1.24647 1.14079 -0.045114 -0.163688 1.1471 0.0693875 0.532236 -1.22927 -0.619075 -0.146558 0.217339 0.553195 0.16011 -0.799973 -0.715214 -1.06294 -0.301895 0.225421 -0.200912 -0.467672 0.301059 -0.260864
235 0.641529 -0.341715 0.511595 0.657603 0.345892 -0.589154 0.657509 0.565317 -0.00853026 -2.03609 -0.703821 -0.24219 0.708321 0.545797 0.227795 -0.593471 -0.884418 -0.453954 -0.111333 -0.461523 -0.134583 0.496019 0.450049 -0.455791
219 0.629192 -0.346372 0.427873 0.815478 0.283036 -0.715831 0.64005 0.69838 -0.149164 -2.03298 -0.773429 -0.116166 0.660181 0.538765 0.217878 -0.740599 -0.920332 -0.631041 -0.252202 -0.484913 0.00741938 0.56502 0.30867 -0.65323
234 0.613928 -0.309665 0.405145 0.677287 0.213522 -0.522903 0.552525 0.480257 -0.0625985 -1.67547 -0.647151 -0.180823 0.549982 0.44407 0.150045 -0.511605 -0.664953 -0.399309 -0.118404 -0.381049 -0.110696 0.400181 0.321813 -0.433191
59 -0.00584699 0.384136 0.438811 0.583175 -0.17262 0.247262 0.945777 0.952414 0.314228 -1.5039 -0.274549 -0.461055 0.336747 0.307999 0.48078 -0.241492 -0.561211 -0.810078 -0.0916409 -0.316357 0.313593 -0.0728979 -0.296416 -0.210515
61 0.110154 0.244727 0.419036 0.476987 -0.181832 0.0341284 0.614099 0.398049 -0.016215 -1.04751 -0.260378 -0.406173 0.316039 0.351488 0.373076 -0.288038 -0.491159 -0.526753 0.0161478 -0.325 0.0380328 -0.0979764 -0.190254 -0.101176
240 0.651062 -0.308941 0.433593 0.698439 0.253651 -0.531117 0.587891 0.52361 -0.0498182 -1.75054 -0.642818 -0.197245 0.57985 0.490796 0.125898 -0.552289 -0.756844 -0.421839 -0.100718 -0.433405 -0.133794 0.445111 0.34605 -0.419627
233 0.676094 -0.36074 0.531882 0.630357 0.323448 -0.538728 0.619593 0.494694 -0.0367102 -2.01744 -0.728128 -0.268825 0.752077 0.570702 0.222849 -0.591257 -0.824705 -0.344264 -0.0620436 -0.44761 -0.228736 0.458594 0.463635 -0.365802
35 0.0731264 0.0755377 0.681901 0.615044 -0.197868 0.209679 1.00614 0.795356 0.025786 -1.56235 -0.318266 -0.724978 0.650903 0.379703 0.242691 -0.409368 -0.407098 -0.653087 -0.243882 -0.456852 0.241605 -0.249781 -0.425546 0.0373483
46 0.0361267 0.326009 0.568654 0.628991 -0.340145 0.0555719 0.927492 0.669523 -0.123418 -1.53044 -0.269648 -0.500934 0.396094 0.375604 0.632006 -0.30751 -0.694279 -0.734761 0.1245 -0.487776 0.093959 -0.17165 -0.145226 -0.216906
217 0.698407 -0.376398 0.451134 0.888758 0.283371 -0.770563 0.68618 0.736216 -0.181949 -2.12786 -0.826762 -0.162944 0.678564 0.532111 0.162327 -0.78999 -0.956646 -0.567495 -0.230171 -0.527102 -0.0728152 0.552869 0.359464 -0.629218
82 0.267418 0.527644 0.607795 0.701995 -0.259372 -0.122249 0.837861 0.233667 -0.305489 -1.31171 -0.454599 -0.690511 0.408687 0.643031 0.527496 -0.563597 -0.880047 -0.578931 0.158585 -0.483845 -0.192598 -0.191441 -0.24501 -0.246937
97 -0.07507 0.537393 0.66474 0.542044 -0.220969 -0.0167382 0.947699 0.424168 0.229791 -1.48882 -0.50405 -0.648115 0.389272 0.331059 0.771437 -0.381093 -0.613586 -0.632222 0.06456 -0.335176 0.035528 -0.0644523 -0.220612 -0.205049
162 1.01637 0.0287347 0.670223 0.700486 -0.0707148 0.408181 1.08268 -0.00136577 0.276288 -1.67579 -0.526792 -0.340293 0.12801 0.664285 0.0285336 -0.174716 -0.931924 -0.834707 0.368263 -0.636402 0.382447 0.603925 -0.251949 -0.117234
161 1.08268 0.0274128 0.641868 0.722659 -0.0304208 0.467018 1.15859 -0.0426476 0.30846 -1.75615 -0.481332 -0.364519 0.0223087 0.78224 -0.0687927 -0.210648 -0.889122 -0.973685 0.38972 -0.551318 0.439078 0.640053 -0.241306 -0.032334
165 0.916446 0.0405985 0.576053 0.580705 -0.155715 0.306564 0.931748 0.0435082 0.274082 -1.42804 -0.506439 -0.287365 0.149388 0.559824 0.0619119 -0.123668 -0.934271 -0.711998 0.330163 -0.630703 0.296216 0.529301 -0.248163 -0.176975
155 0.995999 0.0803083 0.604836 0.622298 -0.204257 0.315193 0.922827 0.0412451 0.245658 -1.53552 -0.537683 -0.287619 0.223882 0.543681 0.0899865 -0.120169 -0.977014 -0.71831 0.316376 -0.660159 0.27829 0.533677 -0.252491 -0.235477
139 1.00333 0.0554689 0.598756 0.663686 -0.186051 0.280803 0.971834 0.0668276 0.221726 -1.51237 -0.507803 -0.279058 0.202832 0.539013 0.133175 -0.0880392 -1.04724 -0.697586 0.276223 -0.674411 0.301639 0.470296 -0.25606 -0.231394
134 1.06014 0.0542847 0.61259 0.639022 -0.220661 0.318832 0.94397 0.0234803 0.221091 -1.52995 -0.549151 -0.295914 0.209902 0.593941 0.0954449 -0.169766 -1.08242 -0.829785 0.38864 -0.734911 0.333736 0.651434 -0.28054 -0.154067
75 0.201884 0.775738 0.737066 0.560723 -0.311937 -0.0719657 0.620129 0.200797 0.0360436 -1.40743 -0.615671 -0.914304 0.417776 0.660061 0.687398 -0.656652 -0.803013 -0.608428 0.0132915 -0.325901 -0.00732805 -0.124293 -0.348996 -0.389945
195 1.14013 -0.050888 1.21247 1.13522 -0.100675 -0.14305 1.22647 0.0791373 0.490348 -1.24362 -0.531443 -0.178852 0.247516 0.538049 0.213046 -0.73144 -0.819328 -1.11452 -0.292677 0.303763 -0.201415 -0.459566 0.378987 -0.276971
193 1.22453 -0.00976442 1.25374 1.15557 -0.0590751 -0.163789 1.14932 0.0655494 0.532496 -1.33436 -0.682607 -0.155594 0.279624 0.555195 0.174299 -0.87617 -0.747528 -1.15019 -0.281875 0.241598 -0.256721 -0.525375 0.27565 -0.258279
186 1.07571 -0.0481096 1.17055 1.08977 -0.0808687 -0.128091 1.12922 0.0695113 0.536186 -1.27045 -0.587355 -0.21814 0.2504 0.551134 0.165335 -0.726734 -0.787298 -1.06157 -0.223558 0.257016 -0.164732 -0.408134 0.315982 -0.217376
33 0.157784 0.224659 0.647802 0.738445 -0.108343 0.37836 0.883188 0.961877 0.428941 -1.56412 -0.427776 -0.58157 0.762262 0.480025 0.235185 -0.480781 -0.532239 -0.696954 -0.261517 -0.330092 0.33912 -0.156097 -0.566836 0.104109
34 0.128892 0.270894 0.645605 0.643696 -0.0340912 0.253269 0.575668 0.868187 0.463372 -1.37021 -0.302935 -0.439199 0.581338 0.43962 0.288557 -0.307789 -0.528744 -0.777756 -0.208695 -0.283789 0.392867 -0.0915832 -0.458781 -0.0594788
110 0.292391 0.442755 0.445416 0.811352 -0.0792837 -0.226946 0.630917 0.0244937 -0.242855 -0.992305 -0.467779 -0.686312 0.335277 0.575237 0.343033 -0.367776 -0.782478 -0.539764 0.140002 -0.389664 -0.229148 -0.0456739 -0.19804 -0.024772
2 0.405984 0.631613 0.49186 0.963029 -0.15029 -0.188177 0.803334 -0.0552983 -0.317364 -1.17996 -0.670332 -0.928302 0.534462 0.786078 0.376139 -0.634901 -0.989508 -0.545562 0.172969 -0.558942 -0.402719 -0.122987 -0.315043 -0.0653314
130 1.05751 0.0436556 0.607948 0.626339 -0.227198 0.358561 0.953006 0.0180952 0.252741 -1.60605 -0.605368 -0.35624 0.290773 0.562945 0.128281 -0.172707 -1.1224 -0.757857 0.339331 -0.696527 0.295417 0.63171 -0.227885 -0.199109
141 1.07124 0.0662125 0.621085 0.565275 -0.260506 0.355445 0.904719 0.026324 0.250117 -1.56724 -0.57053 -0.28853 0.244113 0.544544 0.138817 -0.0922777 -1.09648 -0.714876 0.351333 -0.746613 0.259959 0.65972 -0.260916 -0.212993
137 1.0207 0.0340573 0.74989 0.641827 -0.0075194 0.477957 1.08199 -0.062373 0.337217 -1.68272 -0.553249 -0.344146 -0.019466 0.837733 -0.0603796 -0.157026 -0.857637 -0.988343 0.381449 -0.530242 0.427865 0.574514 -0.15066 -0.0284481
142 1.0112 0.0218462 0.61735 0.639576 -0.0971658 0.390677 0.984594 -0.025216 0.296212 -1.57279 -0.511518 -0.289175 0.120577 0.657887 0.0357467 -0.120594 -0.95779 -0.830515 0.375575 -0.620113 0.348974 0.60373 -0.224366 -0.147953
92 -0.0198835 0.150178 0.671006 0.497265 -0.201777 0.157902 0.902923 0.805957 -0.0845811 -1.67351 -0.236429 -0.598221 0.478647 0.288662 0.469618 -0.177181 -0.517453 -0.82105 -0.0913777 -0.414853 0.219897 -0.360343 -0.277098 -0.328084
12 0.118989 0.747182 0.517029 0.555115 -0.344646 0.132346 1.18592 0.318118 0.237811 -1.51185 -0.833915 -0.969438 0.547174 0.499618 0.701706 -0.816681 -0.722364 -0.506279 0.017581 -0.444571 -0.173391 -0.017539 -0.328953 -0.189399
16 -0.115966 0.548246 0.789817 0.569305 -0.142893 0.171032 0.84422 0.85172 0.595163 -1.76231 -0.484118 -0.531616 0.423176 0.320204 0.808835 -0.271532 -0.64428 -0.885001 -0.0986482 -0.302031 0.368385 0.0159997 -0.236779 -0.393029
77 0.406742 0.553691 0.687941 0.665364 -0.0855416 -0.189017 0.562757 0.0853065 -0.312771 -1.19972 -0.412792 -0.804687 0.389352 0.770663 0.460857 -0.522258 -1.00869 -0.669599 0.0154553 -0.372442 -0.179295 -0.332484 -0.442956 -0.254168
196 0.897773 -0.0126825 1.05493 1.23257 -0.276946 -0.0916954 1.53434 0.445097 0.122674 -1.01503 -0.0370849 -0.388589 0.456025 0.724672 0.511125 -0.172523 -1.21602 -0.945282 -0.429637 0.0814185 0.104678 0.0904118 0.500846 -0.472123
167 0.885587 -0.0659391 1.04201 1.29075 -0.261674 -0.0611737 1.61745 0.396782 0.118951 -1.03795 -0.0234598 -0.406058 0.463389 0.740127 0.479574 -0.20083 -1.19495 -0.918738 -0.388244 0.0820343 0.114577 0.0303757 0.52369 -0.504381
198 1.01786 -0.0387894 1.13337 1.27861 -0.19814 -0.109306 1.47544 0.323694 0.323347 -1.1865 -0.230943 -0.360873 0.331979 0.725249 0.347684 -0.377562 -1.13624 -1.05622 -0.390237 0.185593 -0.0252979 -0.121145 0.504338 -0.411528
174 0.845369 -0.0276255 0.990792 1.19644 -0.214462 -0.0750162 1.4541 0.371196 0.187214 -1.12198 -0.13379 -0.33778 0.424288 0.679694 0.451539 -0.293257 -1.05197 -0.875742 -0.324095 0.0673688 0.0159137 -0.0492241 0.450143 -0.476304
24 0.284377 0.264247 0.759677 0.569476 -0.0391321 0.148756 0.618094 0.573737 -0.16287 -1.44985 -0.284155 -0.851489 0.608059 0.482186 0.191339 -0.354932 -0.609658 -0.825652 -0.288593 -0.39016 0.126852 -0.493156 -0.563787 -0.280296
22 0.11522 0.28959 0.565814 0.730377 -0.108364 0.239853 0.624141 1.07145 0.303758 -1.54002 -0.0781767 -0.359759 0.493239 0.363544 0.205671 -0.166727 -0.502065 -0.990922 -0.270021 -0.402886 0.371272 -0.252007 -0.450475 -0.240343
8 0.30875 0.600154 0.53164 0.635919 -0.209249 -0.137852 0.795562 -0.0521223 -0.413517 -1.1179 -0.562777 -0.82059 0.412395 0.804994 0.489126 -0.660756 -1.0221 -0.48967 0.162699 -0.469306 -0.378916 -0.278443 -0.341501 -0.213385
11 0.227533 0.498922 0.402004 0.689589 -0.237602 0.218568 1.03831 0.358717 -0.126444 -1.37727 -0.741569 -1.0288 0.552385 0.671851 0.382312 -0.850312 -0.765913 -0.499783 -0.00914886 -0.451556 -0.237318 -0.181184 -0.46662 -0.0471537
39 0.238184 0.439811 0.467796 0.637521 -0.149964 -0.0375476 0.74057 0.0551041 -0.307901 -1.19221 -0.568729 -0.933668 0.431001 0.595122 0.494722 -0.524799 -0.873177 -0.488124 0.143478 -0.365622 -0.223777 -0.318121 -0.346866 -0.19657
36 0.115989 0.628453 0.869403 0.827942 0.213682 -0.235799 0.53178 0.321159 0.430271 -1.71428 -0.557048 -0.679759 0.328663 0.450339 0.993432 -0.018407 -1.04637 -1.07521 0.132565 -0.167963 0.10347 -0.21499 -0.449847 -0.391711
50 0.236578 0.378055 0.52158 0.500718 -0.193045 0.00131318 0.538196 0.183443 -0.122128 -0.97253 -0.428507 -0.601078 0.377838 0.541136 0.419346 -0.48445 -0.697558 -0.432722 0.0718313 -0.307125 -0.0884371 -0.162595 -0.29425 -0.135165
49 -0.0468764 0.408438 0.587765 0.518078 -0.286926 0.222392 0.99978 0.679196 0.181026 -1.44672 -0.472365 -0.613731 0.596225 0.405374 0.655083 -0.46786 -0.610318 -0.570701 -0.000678168 -0.38768 0.151067 -0.132831 -0.34444 -0.0622797
90 0.287735 0.416985 0.601684 0.527349 -0.0569424 0.0141653 0.454695 0.296449 -0.197475 -1.12278 -0.334162 -0.743234 0.431814 0.531501 0.266116 -0.402961 -0.645481 -0.615874 -0.104486 -0.323711 0.00890502 -0.334964 -0.456055 -0.234186
191 1.07336 -0.0253396 1.14161 1.06455 -0.0568812 -0.112671 1.11593 0.122391 0.464352 -1.18946 -0.542848 -0.204353 0.272257 0.601112 0.147668 -0.741436 -0.753899 -1.03122 -0.275508 0.221324 -0.192733 -0.394443 0.319055 -0.235019
149 1.15675 0.0204463 0.664271 0.682849 -0.256754 0.28183 1.00156 0.0824553 0.227282 -1.52622 -0.548672 -0.232255 0.267153 0.478827 0.153965 -0.0244233 -1.20637 -0.704536 0.314074 -0.797299 0.257663 0.554024 -0.323014 -0.340759
163 0.951106 0.0369902 0.574047 0.569207 -0.178033 0.299696 0.868957 -0.0093151 0.222103 -1.36597 -0.500901 -0.216704 0.121179 0.470112 0.0789807 -0.052546 -0.952084 -0.641744 0.349808 -0.675731 0.295865 0.558772 -0.273873 -0.242572
156 1.03635 0.0494118 0.584199 0.602026 -0.276255 0.268028 0.899403 0.0701971 0.207475 -1.4024 -0.544455 -0.267727 0.250894 0.502624 0.168618 -0.0743467 -1.12732 -0.716856 0.332056 -0.725696 0.246539 0.553138 -0.252239 -0.286624
222 0.521524 -0.298304 0.35532 0.561297 0.195958 -0.454356 0.496888 0.428163 -0.091759 -1.5017 -0.537621 -0.160126 0.477263 0.394524 0.119959 -0.514469 -0.65046 -0.352207 -0.131942 -0.389713 -0.126111 0.412766 0.327639 -0.350249
227 0.667425 -0.404063 0.406781 0.721562 0.256192 -0.59143 0.572428 0.566378 -0.112215 -1.7692 -0.725494 -0.175117 0.663788 0.515873 0.136071 -0.625954 -0.784106 -0.426361 -0.131801 -0.451221 -0.153296 0.505475 0.346729 -0.450963
205 0.827621 -0.0310507 0.891688 1.01673 -0.239687 -0.047536 1.25864 0.300918 0.148224 -0.832141 -0.0757004 -0.318063 0.346231 0.586781 0.362419 -0.168949 -0.952423 -0.819806 -0.333874 0.124002 0.0982915 0.0288568 0.455317 -0.377859
18 -0.0872201 0.289201 0.552736 0.606034 -0.185174 0.186364 1.0901 0.893214 0.256416 -1.59767 -0.347317 -0.601151 0.335285 0.268603 0.623129 -0.304301 -0.53866 -0.842607 -0.0662687 -0.316107 0.298748 0.0053383 -0.13969 -0.0531408
81 0.251226 0.468438 0.649169 0.615891 -0.0488851 0.0703349 0.584902 0.47362 0.0531152 -1.28584 -0.384654 -0.673076 0.413881 0.521326 0.371656 -0.388229 -0.697338 -0.749217 -0.0970335 -0.307984 0.117988 -0.219393 -0.405065 -0.264778
180 0.811828 0.033718 0.877282 1.00923 -0.163997 -0.066097 1.21043 0.347617 0.153981 -1.27581 -0.336248 -0.377671 0.460581 0.640914 0.370145 -0.343698 -1.00313 -0.867469 -0.180779 -0.153382 0.0757715 0.0604638 0.197792 -0.361327
178 0.92174 -0.0505428 0.990121 1.16348 -0.270682 -0.0744674 1.46271 0.369673 0.111313 -1.08676 -0.1453 -0.353768 0.492198 0.680595 0.42895 -0.258605 -1.0982 -0.936801 -0.349228 0.0575099 0.112486 0.0279522 0.424387 -0.469058
181 0.866964 0.0227613 0.904503 1.03599 -0.197509 -0.0388437 1.24168 0.323867 0.178064 -1.22066 -0.344073 -0.383505 0.430269 0.655263 0.341704 -0.390948 -0.999199 -0.916035 -0.235595 -0.0883145 0.072857 -0.033465 0.230408 -0.340291
157 1.09643 0.0295196 0.640713 0.651209 -0.209224 0.298223 0.995214 0.0219618 0.247311 -1.50859 -0.540875 -0.275081 0.217904 0.536318 0.111316 -0.0307506 -1.11963 -0.71635 0.351976 -0.750825 0.287195 0.582146 -0.302247 -0.296034
144 1.11866 0.0601275 0.630058 0.65601 -0.2665 0.38976 0.946926 0.0106915 0.231184 -1.63654 -0.620227 -0.343033 0.27746 0.618303 0.129574 -0.178018 -1.15568 -0.79901 0.368019 -0.746173 0.300232 0.694726 -0.226986 -0.193673
238 0.673059 -0.234203 0.772554 0.404495 0.307224 -0.227753 0.607791 0.256066 0.224182 -1.95297 -0.471542 -0.500995 0.758281 0.524097 0.184215 -0.47691 -0.80592 -0.0923479 0.0979459 -0.400003 -0.479767 0.185365 0.645423 -0.0595186
172 0.829597 -0.0604267 0.963801 1.09776 -0.21368 -0.0898969 1.35952 0.302729 0.146612 -0.950464 -0.100542 -0.304704 0.415157 0.629478 0.394044 -0.256471 -0.962622 -0.829112 -0.327806 0.0852921 0.0371529 -0.00133735 0.447794 -0.369362
223 0.676557 -0.356074 0.471328 0.817943 0.245883 -0.586251 0.659501 0.592586 -0.107513 -1.93398 -0.779029 -0.275945 0.730247 0.55966 0.211793 -0.634377 -0.814681 -0.469828 -0.13184 -0.488571 -0.128243 0.518879 0.326905 -0.522413
80 0.202539 0.591196 0.548281 0.632427 -0.0145443 0.0923027 0.60282 0.477919 0.262658 -1.20548 -0.45858 -0.658274 0.431364 0.499782 0.354242 -0.431244 -0.637978 -0.698362 -0.1194 -0.277695 0.0647765 -0.15961 -0.513454 -0.186924
120 1.00433 0.0165986 0.612087 0.696712 -0.0532597 0.475549 1.11173 -0.0804801 0.318117 -1.71399 -0.469255 -0.349304 0.0265355 0.760759 -0.107298 -0.162932 -0.837935 -0.973388 0.399379 -0.56887 0.443186 0.616613 -0.229481 -0.0398802
173 0.937958 -0.0255119 1.03669 1.08034 -0.179237 -0.1195 1.21077 0.215138 0.169646 -0.932451 -0.26127 -0.218 0.407287 0.532448 0.347579 -0.473047 -0.818007 -0.869988 -0.303711 0.125212 -0.0305272 -0.144496 0.382149 -0.354455
218 0.658129 -0.373951 0.496319 0.738 0.255048 -0.559998 0.592377 0.511763 -0.0926043 -1.9111 -0.713656 -0.203813 0.666963 0.47279 0.158149 -0.615519 -0.795767 -0.344769 -0.157427 -0.459772 -0.193959 0.470411 0.446287 -0.437692
159 0.975237 0.0565289 0.597593 0.620971 -0.158706 0.331811 1.03752 0.0642772 0.285083 -1.54468 -0.548932 -0.258449 0.168647 0.549782 0.0680253 -0.156402 -0.90142 -0.733008 0.296318 -0.594957 0.350332 0.534773 -0.284017 -0.242891
166 0.938452 -0.0393145 1.10445 1.29147 -0.242222 -0.0820931 1.55697 0.336393 0.139388 -1.02064 -0.118938 -0.331449 0.478847 0.66263 0.476643 -0.34669 -1.0753 -0.919247 -0.386868 0.103501 0.0359927 -0.0204671 0.483941 -0.466103
70 0.381635 0.437214 0.533967 0.642315 -0.17781 -0.164059 0.765415 -0.0101817 -0.358543 -1.07953 -0.505927 -0.695277 0.432431 0.737217 0.398323 -0.58372 -0.901211 -0.498325 0.123345 -0.498974 -0.346312 -0.22163 -0.307175 -0.15192
76 0.152705 0.46276 0.601252 0.731266 0.0631044 -0.194302 0.561721 0.267444 0.033201 -1.35118 -0.498355 -0.689804 0.321479 0.488537 0.736143 -0.178086 -0.920562 -0.744698 0.18663 -0.274923 -0.0399606 -0.269983 -0.389942 -0.165261
44 0.0318466 0.432017 0.681397 0.706669 -0.0742158 0.00514063 0.75654 0.519039 0.28073 -1.61405 -0.576154 -0.63672 0.458665 0.468974 0.887697 -0.249345 -0.941658 -0.773223 0.176473 -0.247543 0.153189 -0.193356 -0.414949 -0.118021
64 -0.024384 0.484422 0.572048 0.571543 -0.0821174 0.0125383 0.813297 0.560474 0.314808 -1.4392 -0.417454 -0.539588 0.333771 0.276304 0.716844 -0.171619 -0.656862 -0.807314 0.0583915 -0.274072 0.127904 -0.060983 -0.21615 -0.269333
125 1.0745 0.00272259 0.631934 0.675253 -0.0720441 0.496131 1.15953 -0.0388049 0.332697 -1.83015 -0.507969 -0.345432 0.00268069 0.767207 -0.0811035 -0.201173 -0.972524 -0.996591 0.457541 -0.629646 0.434319 0.725998 -0.287879 -0.074967
212 0.586619 -0.232966 0.381904 0.702168 0.116426 -0.375636 0.454365 0.419512 -0.154282 -1.33921 -0.550997 -0.176441 0.454548 0.33946 0.0960684 -0.424823 -0.529442 -0.293757 -0.0954302 -0.345839 -0.123001 0.350118 0.33432 -0.336274
123 0.998776 0.0444604 0.625267 0.682276 0.0102708 0.410464 1.15347 -0.0154233 0.302819 -1.76922 -0.436825 -0.395438 -0.00551859 0.825806 -0.0696731 -0.255357 -0.861305 -1.04027 0.383742 -0.540998 0.394497 0.566762 -0.222983 0.0305399
124 0.893179 0.0355601 0.61335 0.617899 -0.024493 0.378028 1.00629 -0.025929 0.31653 -1.58733 -0.416839 -0.343675 0.0322445 0.694329 -0.0446089 -0.190068 -0.817215 -0.853924 0.337992 -0.546939 0.361796 0.56401 -0.194841 -0.0334798
214 0.701479 -0.37027 0.519089 0.733948 0.252305 -0.496398 0.541654 0.503342 -0.0590845 -1.90846 -0.708337 -0.286591 0.710216 0.532817 0.136206 -0.580169 -0.717658 -0.267146 -0.100878 -0.482965 -0.2471 0.436352 0.47955 -0.339345
56 -0.00337983 0.340632 0.544466 0.667162 -0.171046 0.0253809 0.821729 0.692567 0.0971267 -1.35059 -0.303092 -0.554819 0.300875 0.355949 0.573815 -0.265186 -0.65107 -0.791555 0.0342234 -0.324774 0.225352 -0.0437654 -0.197242 -0.0744976
60 0.00614611 0.348275 0.603713 0.639577 -0.255297 0.257531 1.05508 1.01041 0.289355 -1.6236 -0.364545 -0.541892 0.507819 0.367447 0.588617 -0.374357 -0.603406 -0.791505 -0.0520716 -0.390851 0.371237 -0.13779 -0.310932 -0.136217
200 0.976605 -0.0115387 1.06391 1.233 -0.259799 -0.114897 1.5205 0.416328 0.105516 -0.893963 -0.122682 -0.409417 0.50849 0.736337 0.401095 -0.24914 -1.12417 -0.974371 -0.387448 0.117629 0.133487 0.0481205 0.532556 -0.430025
114 0.0892495 0.41354 0.542255 0.556207 -0.230894 0.160349 0.624574 0.645281 0.210218 -1.16827 -0.372586 -0.465423 0.441062 0.43816 0.461569 -0.377179 -0.576001 -0.593477 0.034366 -0.312157 0.284512 -0.0973491 -0.311905 -0.077872
99 0.0568918 0.39258 0.499752 0.777865 -0.206802 -0.203656 0.766066 0.428196 -0.313638 -1.36574 -0.308926 -0.585946 0.303112 0.464961 0.541467 -0.298579 -0.759693 -0.697664 0.22897 -0.442649 -0.0839775 -0.125605 -0.159013 -0.078421
241 0.520252 -0.299438 0.356026 0.499169 0.23744 -0.444291 0.461744 0.386278 -0.015594 -1.53253 -0.5409 -0.139135 0.519208 0.415659 0.147506 -0.436765 -0.623319 -0.304247 -0.0962619 -0.372374 -0.12045 0.416154 0.340111 -0.330043
79 0.15278 0.506492 0.527942 0.649761 -0.0139459 -0.0707507 0.667847 0.235352 0.0468594 -1.35654 -0.516689 -0.709076 0.395569 0.541263 0.531587 -0.363599 -0.774269 -0.727993 0.0273275 -0.306932 -0.0982458 -0.2255 -0.460118 -0.15639
96 0.0474698 0.472327 0.467002 0.601564 -0.0661526 0.189722 0.689143 0.712432 0.370497 -1.26676 -0.415532 -0.511373 0.446051 0.379076 0.347427 -0.306819 -0.513376 -0.670954 -0.152478 -0.331072 0.204203 -0.0539251 -0.394206 -0.130502
