198 26
110 -0.0264968 -0.514448 -0.745439 -0.0132356 0.207286 -0.0487151 0.0786464 0.407215 -0.0937411 -0.758901 -0.281782 0.106162 0.196895 -1.25199 -0.523924 0.00950103 -0.256175 0.46847 0.545943 0.158933 -0.426802 0.385535 1.33383 -0.157449 0.254397 0.0216731
67 -0.269563 -0.716055 -0.825494 0.121092 0.231355 -0.0438302 0.105355 0.228821 0.0948555 -0.715385 -0.101545 -0.00227113 0.0872787 -0.916251 -0.482527 0.050333 -0.350195 0.113915 0.27197 0.333878 -0.380654 0.302797 1.02206 -0.0850114 0.11252 -0.184874
84 -0.00986516 -0.521301 -0.827083 0.0913244 0.116442 -0.0579345 0.155749 0.344919 -0.123098 -0.7919 -0.27656 0.042057 0.1953 -1.07098 -0.623246 0.00129249 -0.356593 0.421889 0.471453 0.176067 -0.391961 0.315387 1.31082 -0.171883 0.200228 0.0721046
119 -0.0728057 -0.57285 -0.842023 -0.022741 0.21703 -0.0611416 0.0467002 0.417292 -0.167959 -0.72108 -0.354497 0.0744781 0.20907 -1.28827 -0.514685 0.00162815 -0.185777 0.530091 0.580389 0.0413476 -0.403461 0.431838 1.32316 -0.137074 0.21872 0.13767
74 -0.210616 -0.555628 -0.798867 -0.0043099 0.240557 -0.0811565 -0.00823181 0.34552 -0.0322099 -0.663098 -0.154157 0.136704 0.127505 -1.173 -0.413731 0.0656871 -0.178531 0.370272 0.469457 0.160213 -0.339251 0.389443 1.11741 -0.106906 0.206181 -0.0335394
70 -0.2473 -0.622735 -1.04991 0.302704 -0.00981934 -0.0219835 0.2891 0.207314 0.0451371 -1.11459 -0.131264 0.0843861 0.156269 -0.930745 -0.863338 -0.00350256 -0.720373 0.0679182 0.32579 0.674673 -0.548142 0.294247 1.19188 -0.231698 0.148201 -0.165787
33 -0.360378 -0.776016 -1.19837 0.322803 0.0900609 -0.0207364 0.342443 0.211312 0.14592 -1.29904 -0.061228 0.0443869 0.110305 -1.01414 -0.934619 0.0258186 -0.857412 -0.0484968 0.254177 0.816724 -0.620814 0.296558 1.25985 -0.195377 0.137194 -0.332561
154 -0.409859 -0.749608 -0.941121 0.187536 0.166725 -0.0250084 0.137249 0.189776 0.130951 -0.8777 0.0147077 0.062809 0.0447556 -0.770448 -0.51458 0.0473388 -0.510591 0.00232846 0.214879 0.507201 -0.410312 0.244948 0.853167 -0.108883 0.0809563 -0.268705
56 -0.415357 -0.765692 -1.05439 0.237549 0.120247 -0.0178707 0.206241 0.130929 0.166004 -1.00927 0.0136324 0.0812458 0.0486714 -0.769054 -0.627685 0.0755408 -0.619047 -0.0640626 0.181706 0.685161 -0.499607 0.28115 0.914287 -0.15121 0.086639 -0.341644
52 -0.351573 -0.717487 -1.17265 0.320363 0.0562307 -0.0129009 0.352039 0.173742 0.158811 -1.31576 -0.0608064 0.0552885 0.107875 -0.972171 -0.883524 0.0175541 -0.832251 -0.0739177 0.196458 0.814981 -0.634093 0.266954 1.11773 -0.220287 0.132522 -0.320277
51 -0.402477 -0.732417 -1.1669 0.334498 0.0765205 -0.0052989 0.370975 0.163196 0.18258 -1.33106 -0.00162568 0.0975477 0.0447637 -0.934849 -0.879392 0.0573439 -0.834531 -0.128321 0.209221 0.915474 -0.64125 0.292111 1.13445 -0.185719 0.15173 -0.422959
62 -0.170035 -0.558597 -0.922655 0.292726 0.0338619 0.00133481 0.263594 0.174682 0.0464838 -1.02728 -0.104667 0.00382004 0.137631 -0.906175 -0.780214 -0.0303993 -0.649117 0.0200993 0.206526 0.599202 -0.514636 0.229243 1.01266 -0.189672 0.126227 -0.179262
26 0.0242343 -0.446812 -0.767139 -0.0125195 0.251569 -0.0550814 0.0882174 0.395254 -0.160769 -0.755065 -0.355183 0.0998218 0.2201 -1.29989 -0.552265 -0.0153537 -0.219043 0.533961 0.553462 0.0582277 -0.429868 0.368882 1.32278 -0.158588 0.222951 0.124819
19 -0.576549 -0.738937 -0.982929 -0.0354143 0.380572 -0.0650221 -0.0560261 0.280274 0.216948 -0.830086 0.0934559 0.211781 -0.0230489 -1.07099 -0.136161 0.220117 -0.211325 0.130627 0.37687 0.396552 -0.372832 0.475739 0.889353 -0.0401603 0.125579 -0.372067
13 -0.627591 -0.947341 -1.14431 -0.0415413 0.393002 -0.0529336 -0.00228476 0.291463 0.215666 -0.841236 0.0766422 0.18344 -0.075364 -1.0335 -0.0879529 0.185656 -0.187369 0.0747153 0.356769 0.39862 -0.354306 0.487795 0.860002 -0.017946 0.149607 -0.38757
122 -0.273014 -0.860552 -0.983228 -0.0230912 0.350174 -0.0617158 0.0894829 0.349832 0.0495367 -0.71186 -0.147212 0.038371 0.0928369 -1.01499 -0.322061 0.0700958 -0.19924 0.261181 0.423078 0.182842 -0.332552 0.393061 1.10017 -0.0760075 0.178966 -0.0969453
23 -0.526106 -0.957389 -1.04103 -0.177972 0.472004 -0.0683322 0.00456709 0.363694 0.13407 -0.696026 -0.00860397 0.171135 -0.0341056 -1.08684 -0.0640264 0.175953 -0.0917432 0.252277 0.469577 0.246208 -0.321097 0.507545 1.02155 -0.0430357 0.195278 -0.295206
116 -0.197927 -0.762828 -0.894343 -0.0595667 0.307241 -0.0776475 0.109366 0.359373 -0.0392771 -0.734603 -0.220097 0.0245565 0.132799 -1.01305 -0.339658 0.0128084 -0.195202 0.346052 0.444919 0.149681 -0.370516 0.393108 1.18859 -0.0820264 0.185344 -0.0390609
18 -0.567379 -0.837702 -1.02381 -0.0853451 0.430046 -0.0828425 -0.0376818 0.306562 0.152422 -0.767096 0.0293383 0.194723 -0.0179686 -1.12713 -0.0986121 0.179934 -0.116167 0.20542 0.446329 0.327912 -0.343412 0.528746 0.924314 -0.0262977 0.170468 -0.292001
10 -0.404386 -0.751906 -0.979512 -0.0594197 0.350839 -0.096346 -0.0492701 0.36084 0.0471717 -0.804936 -0.0716538 0.204217 0.0725187 -1.27781 -0.286007 0.142362 -0.149225 0.366509 0.516927 0.206176 -0.332797 0.482021 1.11151 -0.102496 0.213126 -0.147975
103 -0.059846 -0.591852 -0.777016 -0.00337227 0.23009 -0.0283015 0.0858339 0.379667 -0.091538 -0.756332 -0.289349 0.0695755 0.176677 -1.18524 -0.479962 -0.00535725 -0.253831 0.44559 0.506757 0.105946 -0.424847 0.380664 1.27361 -0.125998 0.211792 0.0205636
98 -0.0337395 -0.571829 -0.801563 -0.084669 0.265973 -0.0649407 0.0400217 0.459706 -0.128904 -0.763724 -0.332448 0.0716724 0.188243 -1.29222 -0.485663 0.0397198 -0.185541 0.55956 0.575297 0.0596639 -0.397358 0.404404 1.42035 -0.137278 0.250992 0.0708729
54 -0.156837 -0.524924 -0.879041 0.0600091 0.194303 -0.0477897 0.0706529 0.374189 -0.116405 -0.773092 -0.237104 0.0952886 0.209152 -1.16523 -0.598408 0.0225755 -0.308906 0.42669 0.551041 0.21342 -0.377112 0.331775 1.26913 -0.143274 0.207834 0.0901763
138 -0.105071 -0.449756 -0.791984 0.0733733 0.162522 -0.0757988 0.124998 0.309199 -0.0842872 -0.696343 -0.181851 0.0988502 0.184324 -1.00701 -0.544582 0.0309621 -0.320739 0.330111 0.412394 0.221755 -0.348131 0.296916 1.06524 -0.136828 0.147729 0.0364626
93 -0.265802 -0.689553 -0.950855 -0.00233762 0.269107 -0.0545983 0.00569617 0.380933 -0.0351474 -0.722161 -0.199572 0.145667 0.128495 -1.16053 -0.372051 0.0887224 -0.191482 0.396651 0.542577 0.165948 -0.335024 0.403165 1.12488 -0.0904345 0.207901 0.0151525
193 -0.162128 -0.601857 -0.794361 -0.0438971 0.23678 -0.0756136 0.058793 0.381803 -0.0526938 -0.69939 -0.249107 0.0786215 0.131783 -1.1655 -0.400451 0.0479356 -0.196603 0.386256 0.509482 0.115541 -0.346053 0.406581 1.20726 -0.0995637 0.212074 0.00307969
89 -0.142121 -0.746962 -0.897307 -0.0245414 0.304084 -0.0455433 0.108639 0.368 -0.0440099 -0.709477 -0.24965 4.33534e-07 0.133741 -1.06133 -0.397058 0.0101993 -0.197471 0.333949 0.451888 0.12256 -0.378253 0.349828 1.18685 -0.107171 0.176576 -0.0141066
102 -0.199595 -0.749589 -0.845199 -0.0558663 0.307982 -0.0669808 0.110297 0.331042 -0.00437983 -0.677794 -0.177977 -0.00514114 0.107458 -0.997639 -0.33292 0.0452666 -0.176718 0.287687 0.41456 0.174673 -0.335045 0.352788 1.16897 -0.103182 0.140417 -0.0489074
101 -0.627456 -1.00587 -1.11397 -0.142625 0.462698 -0.0977987 -0.0133655 0.33928 0.215781 -0.840031 0.0554096 0.228577 -0.0861354 -1.08001 -0.0113295 0.217447 -0.135856 0.151684 0.429656 0.392026 -0.395623 0.574975 0.944102 -0.0141524 0.181145 -0.41465
166 -0.875914 -0.998879 -1.16577 -0.191084 0.519747 -0.0662445 -0.134693 0.304035 0.315017 -0.872905 0.192617 0.340515 -0.180713 -1.10782 0.133082 0.283175 -0.0858556 0.102392 0.407654 0.43819 -0.339507 0.63159 0.769606 -0.00982072 0.180989 -0.564095
168 -0.820814 -1.02447 -1.24224 -0.191392 0.527171 -0.0577888 -0.0999506 0.326907 0.266059 -0.890797 0.136534 0.320659 -0.123069 -1.21517 0.0528669 0.284423 -0.127176 0.167916 0.441051 0.420324 -0.372775 0.636021 0.88425 -0.0162762 0.165224 -0.511077
131 -0.477012 -0.858645 -1.11519 -0.0383476 0.367591 -0.0582559 0.122426 0.321611 0.0918194 -0.877864 -0.0392706 0.183175 -0.0268455 -0.980441 -0.225251 0.148723 -0.271524 0.144859 0.403813 0.423822 -0.389998 0.482731 0.973194 -0.0598657 0.181202 -0.298651
126 -0.497673 -0.833999 -1.02606 -0.0113824 0.321087 -0.0358747 0.104167 0.271845 0.143233 -0.827548 0.0262949 0.162488 -0.0625477 -0.875129 -0.205673 0.135356 -0.275857 0.065376 0.323052 0.456633 -0.37749 0.425501 0.898246 -0.0791782 0.16099 -0.327821
123 -0.171348 -0.845283 -0.922755 -0.0111979 0.287075 -0.0623642 0.113134 0.373287 -0.00838953 -0.755467 -0.244178 0.0234117 0.113013 -1.00187 -0.394366 0.0230463 -0.216487 0.31869 0.444227 0.139963 -0.314839 0.360156 1.24059 -0.0996084 0.17216 -0.0305725
109 -0.0555907 -0.553133 -0.785762 -0.00906615 0.219291 -0.0547054 0.0700017 0.377851 -0.0708587 -0.745458 -0.241185 0.065087 0.170275 -1.22382 -0.520029 0.0401255 -0.249392 0.436376 0.532502 0.154742 -0.384627 0.348958 1.30147 -0.130197 0.219087 0.00653927
100 -0.112652 -0.649991 -0.814716 -0.0439445 0.28577 -0.0660232 0.0665947 0.396335 -0.0331275 -0.719343 -0.275292 0.0109903 0.185314 -1.13734 -0.445718 -0.0028276 -0.237274 0.406722 0.47444 0.0934782 -0.356219 0.329172 1.23686 -0.128307 0.196018 0.0492203
55 -0.0672601 -0.557778 -0.764115 0.00979514 0.188302 -0.0774492 0.0942433 0.373542 -0.0843335 -0.765831 -0.268009 0.0777381 0.186624 -1.13422 -0.542772 0.020792 -0.255879 0.393105 0.501376 0.169748 -0.396357 0.327479 1.24265 -0.122366 0.19894 0.0593736
48 -0.0659126 -0.532897 -0.791941 0.0496483 0.164983 -0.0485656 0.0849884 0.34677 -0.106911 -0.698265 -0.26647 0.0611687 0.219245 -1.06951 -0.560993 0.0237888 -0.259469 0.400098 0.458735 0.126457 -0.372492 0.302308 1.22408 -0.156241 0.174694 0.0682875
81 0.0397861 -0.493268 -0.742207 0.0133254 0.18215 -0.0255887 0.0976398 0.396461 -0.138272 -0.723242 -0.329359 0.0828602 0.194924 -1.18696 -0.561632 0.00647786 -0.229619 0.51412 0.526944 0.084104 -0.398015 0.343892 1.31931 -0.161554 0.224576 0.090936
8 -0.264048 -0.606745 -0.838202 -0.093151 0.334429 -0.0449825 -0.00140833 0.375683 -0.0105158 -0.696289 -0.15858 0.174867 0.0697232 -1.19541 -0.267884 0.090901 -0.131534 0.367263 0.514579 0.194188 -0.37103 0.465582 1.10983 -0.0958681 0.215648 -0.099418
28 0.0132545 -0.386436 -0.769725 0.0652925 0.139696 -0.0372828 0.0876671 0.362168 -0.134081 -0.788259 -0.292814 0.102471 0.226152 -1.22862 -0.652122 0.00975953 -0.32953 0.415477 0.518402 0.174122 -0.45191 0.354944 1.25639 -0.18211 0.213184 0.0454413
88 -0.0920886 -0.554186 -0.820162 0.0604146 0.14021 -0.0592253 0.0855041 0.356512 -0.144491 -0.738633 -0.252611 0.0953336 0.198729 -1.07423 -0.570101 0.0163755 -0.298134 0.411105 0.500649 0.140352 -0.393008 0.36409 1.22532 -0.174885 0.19529 0.0483444
94 -0.0568639 -0.49708 -0.763896 0.0264485 0.186017 -0.0389156 0.0828947 0.373003 -0.0873272 -0.720456 -0.274147 0.0645224 0.176575 -1.14188 -0.574451 0.01339 -0.282572 0.431647 0.497788 0.12777 -0.401724 0.365752 1.2587 -0.138568 0.204745 0.0551759
117 -0.106727 -0.669225 -0.809712 0.00232811 0.249166 -0.0863162 0.113846 0.33668 -0.0917043 -0.752715 -0.290896 -0.0109129 0.188531 -1.14537 -0.500784 -0.0223837 -0.238682 0.377753 0.470411 0.14471 -0.413898 0.374783 1.20526 -0.104042 0.195441 0.0413366
14 -0.659133 -0.873139 -1.07331 -0.155704 0.438222 -0.0802886 -0.080215 0.361509 0.217364 -0.845921 0.0828401 0.268939 -0.0565131 -1.24433 -0.041743 0.221825 -0.115986 0.245583 0.487711 0.3303 -0.381796 0.577492 0.942247 -0.0366171 0.214753 -0.38879
164 -0.793902 -1.00237 -1.22997 -0.196282 0.553759 -0.0721289 -0.103155 0.363076 0.279796 -0.907036 0.116778 0.305996 -0.125989 -1.28051 0.0763464 0.270126 -0.0809533 0.203201 0.502299 0.389914 -0.399375 0.662736 0.920865 -2.17684e-05 0.177166 -0.488481
172 -0.77391 -0.987292 -1.16604 -0.200143 0.502768 -0.0696229 -0.102397 0.327857 0.226743 -0.870165 0.116689 0.311703 -0.106834 -1.21613 0.0413165 0.237834 -0.0923505 0.186821 0.439364 0.311294 -0.346696 0.617683 0.869711 0.00376536 0.194963 -0.439403
121 -0.662429 -0.877594 -1.07097 -0.099792 0.405349 -0.0716113 -0.0485448 0.283659 0.227873 -0.865468 0.110311 0.246036 -0.101411 -1.08376 -0.0672855 0.208874 -0.196153 0.103113 0.385659 0.413444 -0.380093 0.517466 0.829171 -0.0252872 0.141896 -0.459124
4 -0.687309 -0.884953 -1.09276 -0.149462 0.465854 -0.0652504 -0.0511787 0.320787 0.215483 -0.8902 0.0936586 0.297365 -0.102118 -1.19842 -0.034547 0.233688 -0.147461 0.180179 0.426778 0.380625 -0.389552 0.573835 0.890129 -0.0182884 0.201267 -0.434492
12 -0.650846 -0.812627 -1.05143 -0.106744 0.432954 -0.0663979 -0.070755 0.333319 0.231451 -0.86842 0.112085 0.279131 -0.0753206 -1.24039 -0.0879732 0.236025 -0.160426 0.174107 0.463238 0.40055 -0.405862 0.564746 0.905862 -0.0505089 0.179498 -0.423795
141 -0.263361 -0.514829 -0.853195 0.198034 0.0673437 -0.0213373 0.253803 0.183789 0.0665445 -0.893183 -0.0668154 0.0670286 0.0565192 -0.70654 -0.590783 0.0176419 -0.516027 -0.00184102 0.190509 0.537049 -0.408383 0.231367 0.842277 -0.12833 0.090221 -0.215438
142 -0.287011 -0.589323 -0.956311 0.262325 0.069475 -0.0211443 0.313178 0.157971 0.119665 -1.05252 -0.0340352 0.0835983 0.0668021 -0.733669 -0.686084 0.0125413 -0.679909 -0.0585289 0.206103 0.706531 -0.506258 0.224234 0.946592 -0.186185 0.120891 -0.302679
36 -0.395515 -0.667883 -1.17827 0.324393 0.0469606 -0.0206378 0.36102 0.175839 0.186002 -1.3839 -0.0528537 0.125516 0.0690896 -0.9508 -0.901277 0.0289563 -0.853077 -0.0785602 0.236502 0.940846 -0.658431 0.305176 1.19563 -0.212837 0.140249 -0.373941
143 -0.336697 -0.585455 -0.95853 0.261025 0.0427007 0.00121641 0.30967 0.160564 0.127474 -1.04423 -0.0200139 0.0672391 0.0620541 -0.756939 -0.735797 0.0231749 -0.681029 -0.102568 0.165533 0.731258 -0.516405 0.2591 0.96508 -0.174572 0.0998901 -0.319577
31 -0.37784 -0.749282 -1.10827 0.262253 0.0918735 -0.0316064 0.409089 0.226382 0.149095 -1.19374 -0.0208766 0.115309 0.0194279 -0.861452 -0.762482 0.0519286 -0.697579 -0.0763047 0.253265 0.825438 -0.565022 0.340405 1.08395 -0.206608 0.153832 -0.345525
132 -0.382309 -0.756041 -0.914595 -0.0376754 0.300013 -0.0402855 0.102326 0.296171 0.075887 -0.739326 -0.0669914 0.142113 -0.012733 -0.916496 -0.211161 0.102339 -0.189025 0.166406 0.370113 0.306723 -0.311702 0.386008 0.920758 -0.0515193 0.157922 -0.198235
2 -0.533624 -0.875426 -1.02924 -0.0719262 0.390304 -0.0493898 -0.0377518 0.276776 0.131594 -0.757351 0.00838239 0.162007 -0.0048067 -1.00736 -0.112731 0.147368 -0.128461 0.196921 0.406309 0.272696 -0.352718 0.442788 0.919653 -0.0500624 0.172733 -0.283752
125 -0.344575 -0.795282 -0.905847 0.111767 0.174592 -0.0742532 0.0355555 0.25141 0.0484856 -0.800198 -0.0494063 0.0842598 0.0900885 -0.922811 -0.422378 0.0545995 -0.324804 0.189626 0.353975 0.308599 -0.347696 0.322318 0.968372 -0.118371 0.12513 -0.154869
149 -0.68948 -0.886025 -1.07325 -0.184616 0.449906 -0.104614 -0.118007 0.322123 0.215279 -0.861345 0.124893 0.289901 -0.0645888 -1.18865 0.0344297 0.236594 -0.0953436 0.214425 0.455361 0.314431 -0.352057 0.58634 0.869869 -0.0304237 0.200969 -0.426371
136 -0.608654 -0.911033 -1.10425 -0.0814288 0.404661 -0.0666873 -0.0333949 0.299499 0.211012 -0.826831 0.0383127 0.217905 -0.0654064 -1.06225 -0.117166 0.190671 -0.180941 0.177017 0.396741 0.384182 -0.366067 0.499925 0.939639 -0.030035 0.19054 -0.408324
165 -0.88176 -1.03353 -1.23544 -0.222675 0.586072 -0.0788351 -0.145653 0.338408 0.342615 -0.917701 0.189282 0.348724 -0.142602 -1.25396 0.105946 0.323063 -0.087815 0.151524 0.44647 0.397546 -0.370789 0.651299 0.864134 0.0128496 0.162839 -0.558406
7 -0.376015 -0.68926 -0.917614 -0.0981634 0.422514 -0.062359 0.0135779 0.352906 0.0862276 -0.777268 -0.0769846 0.142267 0.0551347 -1.226 -0.220716 0.123416 -0.116116 0.310808 0.471836 0.169356 -0.34366 0.463518 1.06066 -0.0654412 0.15653 -0.180118
153 -0.55202 -0.848768 -0.990538 -0.132099 0.43618 -0.0542228 -0.0474002 0.331629 0.195506 -0.735221 0.0440272 0.190042 -0.0401584 -1.05435 -0.0711915 0.181258 -0.119652 0.239942 0.402281 0.267349 -0.310658 0.46212 0.875698 -0.0412872 0.161278 -0.295104
111 -0.116157 -0.557689 -0.766271 0.02292 0.214429 -0.052518 0.0266997 0.38051 -0.0549467 -0.753519 -0.236121 0.110724 0.146949 -1.21385 -0.514152 0.0247144 -0.272051 0.449616 0.526648 0.142515 -0.385164 0.380968 1.23217 -0.148803 0.237713 -0.00253827
83 -0.158725 -0.518929 -0.809942 -0.0200177 0.224698 -0.0733521 0.0353815 0.405887 -0.0828888 -0.718039 -0.221911 0.134452 0.174239 -1.20143 -0.45912 0.0475999 -0.183285 0.445905 0.524008 0.109706 -0.335833 0.408191 1.20884 -0.142939 0.202242 0.024074
86 -0.185039 -0.613516 -0.842022 -0.0219337 0.24267 -0.0643655 0.000870903 0.378142 -0.0578388 -0.724263 -0.167202 0.0805054 0.16648 -1.15082 -0.454475 0.0510857 -0.199174 0.408926 0.494901 0.135923 -0.305482 0.372405 1.12441 -0.0926707 0.177332 -0.0125825
97 -0.244304 -0.752874 -0.904781 -0.0878397 0.331977 -0.0789786 0.112172 0.416201 -0.0329503 -0.74765 -0.214192 0.0633471 0.0989574 -1.09969 -0.334131 0.0495669 -0.146369 0.396738 0.523064 0.186734 -0.341822 0.451405 1.23087 -0.06249 0.192933 -0.0269647
124 -0.150805 -0.657386 -0.893033 0.0702363 0.218289 -0.0368899 0.11654 0.325018 -0.0776034 -0.756021 -0.190848 0.0437923 0.15183 -0.976832 -0.47927 0.00518137 -0.280202 0.303642 0.395754 0.211105 -0.375641 0.290588 1.09999 -0.118988 0.170483 0.00476519
139 -0.306786 -0.591025 -0.908349 0.224352 0.128814 -0.0128643 0.197333 0.172776 0.0984284 -0.926582 -0.0334735 0.0598212 0.0949639 -0.777863 -0.624603 0.0392475 -0.554598 0.0414132 0.238416 0.51443 -0.40691 0.243213 0.879476 -0.136843 0.107639 -0.182637
20 -0.451466 -0.741594 -0.871524 -0.0951328 0.402569 -0.0990784 -0.0339303 0.316338 0.153389 -0.716302 0.0122862 0.158365 -0.00960669 -1.09972 -0.11577 0.171618 -0.109691 0.228073 0.426335 0.24608 -0.309407 0.506837 1.00787 -0.0565544 0.170761 -0.242531
75 -0.163305 -0.516331 -0.777682 -0.0024726 0.22498 -0.0708315 0.0633557 0.378211 -0.0402585 -0.732575 -0.183653 0.12553 0.17534 -1.10775 -0.482461 0.077269 -0.266881 0.376136 0.485834 0.209919 -0.33109 0.345671 1.21043 -0.138095 0.205133 0.0451698
104 -0.245989 -0.644381 -0.867687 0.0292022 0.230329 -0.0816778 0.0693537 0.313554 -0.00991587 -0.734117 -0.167824 0.0605859 0.144732 -1.00471 -0.421773 0.0386309 -0.274507 0.291323 0.400616 0.208974 -0.327768 0.376467 1.08018 -0.0860009 0.155771 -0.0467623
24 -0.347489 -0.899521 -1.00338 -0.108512 0.363927 -0.0828496 -0.00668711 0.35948 0.088268 -0.783268 -0.145638 0.0771534 0.0821521 -1.09663 -0.222287 0.0782425 -0.178884 0.311388 0.479157 0.183528 -0.373956 0.437614 1.08083 -0.0692897 0.165281 -0.178175
3 -0.558604 -0.859664 -1.05013 -0.112034 0.419753 -0.0892812 -0.0325131 0.32696 0.146975 -0.815194 0.0233777 0.189346 -0.0266711 -1.13839 -0.110126 0.180135 -0.137578 0.227682 0.435213 0.301069 -0.36357 0.478275 0.920962 -0.037969 0.157324 -0.279774
108 0.0290109 -0.630341 -0.753985 -0.0117883 0.24583 -0.056547 0.123244 0.4019 -0.14839 -0.772671 -0.373854 -0.0628932 0.24689 -1.22398 -0.600656 -0.060586 -0.263904 0.513041 0.541834 0.0554654 -0.448922 0.327097 1.45963 -0.135991 0.202971 0.109795
90 -0.0902829 -0.698735 -0.88308 0.00134035 0.300136 -0.0472618 0.102458 0.392426 -0.0836354 -0.705185 -0.29231 -0.011883 0.161908 -1.14819 -0.448658 -0.00632525 -0.201255 0.41323 0.493797 0.104713 -0.403023 0.380466 1.25857 -0.0944295 0.193786 0.0232056
68 -0.3605 -0.698925 -1.12774 0.362673 0.0491216 0.0127924 0.37003 0.158917 0.190525 -1.26679 -0.030026 0.0680594 0.0617551 -0.836332 -0.853603 0.0260017 -0.831521 -0.127967 0.166747 0.891584 -0.574764 0.263742 1.02058 -0.186674 0.118028 -0.355397
42 -0.387697 -0.761876 -1.14232 0.347042 0.0846959 0.00206582 0.306481 0.144558 0.156637 -1.2417 -0.0416737 0.0449305 0.0961005 -0.897743 -0.83069 0.0339742 -0.789058 -0.0937936 0.19172 0.819772 -0.5904 0.264531 1.04731 -0.174439 0.134062 -0.367936
47 -0.606989 -0.755423 -1.08838 0.155949 0.166719 -0.0313018 0.206174 0.122034 0.257455 -1.19441 0.112607 0.2177 -0.0859426 -0.828961 -0.530261 0.139975 -0.656176 -0.139857 0.188717 0.86706 -0.53962 0.39724 0.902457 -0.146653 0.143348 -0.567217
17 -0.554027 -0.795742 -1.04676 -0.112082 0.435065 -0.0659102 -0.0612528 0.338766 0.184638 -0.878046 0.0474304 0.22809 -0.0439611 -1.23524 -0.120247 0.196427 -0.146573 0.24203 0.462327 0.348049 -0.379296 0.535684 1.0045 -0.0296439 0.190131 -0.350168
22 -0.419654 -0.744688 -0.946371 -0.0906305 0.302408 -0.0526715 -0.00605065 0.296458 0.046358 -0.670567 -0.0755631 0.151129 0.0286276 -1.00221 -0.194591 0.113367 -0.151228 0.252118 0.405256 0.220181 -0.324234 0.457747 0.909366 -0.0702041 0.169718 -0.18167
69 -0.329496 -0.679339 -1.03812 0.242628 0.0876635 -0.0428232 0.26223 0.193467 0.0970872 -1.05757 -0.0381651 0.0603942 0.11225 -0.848606 -0.726852 0.014886 -0.66391 -0.0354511 0.19217 0.671732 -0.532634 0.27746 0.981672 -0.177338 0.134867 -0.275597
32 -0.381886 -0.84074 -1.27864 0.357352 0.118109 -0.0336524 0.387111 0.237838 0.128865 -1.40386 -0.0813577 0.0675094 0.145681 -1.03655 -0.958861 0.000672455 -0.837761 -0.0112126 0.258997 0.826267 -0.629582 0.316231 1.2484 -0.219906 0.135932 -0.34083
65 -0.361261 -0.71732 -1.04911 0.264348 0.074343 -0.0199978 0.297255 0.167605 0.127544 -1.10217 0.000588953 0.0471034 0.0834829 -0.797576 -0.705337 0.0301735 -0.684637 -0.071076 0.195182 0.740998 -0.521345 0.261824 0.980355 -0.16538 0.111308 -0.344902
9 -0.533743 -0.898613 -1.07707 -0.138634 0.408308 -0.0552726 -0.0321896 0.351078 0.143274 -0.841117 0.0153973 0.219671 -0.0356615 -1.18084 -0.136307 0.193446 -0.150408 0.274157 0.460412 0.310859 -0.391322 0.496717 1.03667 -0.0671342 0.180178 -0.304524
16 -0.173617 -0.536706 -0.78513 -0.0676701 0.285174 -0.0576145 -0.00729379 0.413077 -0.0551991 -0.645264 -0.195634 0.174639 0.11232 -1.19331 -0.329125 0.0966657 -0.143192 0.426033 0.562194 0.112098 -0.374023 0.4288 1.13404 -0.0936303 0.226563 -0.0471887
1 -0.605345 -0.93672 -1.1178 -0.154134 0.458156 -0.0898934 -0.073257 0.362199 0.193066 -0.859884 0.0135635 0.240889 -0.0560154 -1.24201 -0.0773606 0.216711 -0.141997 0.268257 0.489119 0.333641 -0.393393 0.556121 1.04031 -0.0335479 0.195178 -0.332627
128 -0.635088 -0.855076 -1.05218 -0.136341 0.399833 -0.0788572 -0.0614144 0.286678 0.20125 -0.841958 0.0768712 0.27228 -0.0647165 -1.03316 -0.0432681 0.220057 -0.133632 0.151755 0.366688 0.343173 -0.347521 0.528423 0.875377 -0.039225 0.182847 -0.38778
169 -0.843768 -1.01181 -1.19088 -0.216322 0.544172 -0.0866099 -0.125444 0.36581 0.30039 -0.941995 0.159937 0.340438 -0.154174 -1.25363 0.131383 0.290117 -0.0867105 0.147029 0.437468 0.397794 -0.378236 0.663674 0.908086 0.00394677 0.199873 -0.535791
95 -0.230356 -0.836183 -0.920164 -0.0451077 0.331215 -0.0765759 0.0697101 0.321957 0.00327443 -0.701941 -0.225064 -0.0204559 0.107795 -1.00523 -0.357557 0.0103708 -0.20917 0.30118 0.411678 0.14261 -0.350332 0.359206 1.15687 -0.0641399 0.140639 -0.0175863
11 -0.489298 -0.965743 -1.01939 -0.160102 0.409882 -0.0922592 -0.0125793 0.319127 0.118234 -0.764296 -0.0702973 0.129984 0.00204278 -1.0815 -0.0871663 0.150063 -0.101456 0.27318 0.447917 0.202331 -0.383251 0.508178 1.08314 -0.0652691 0.170474 -0.265647
58 -0.294838 -0.671906 -1.02393 0.267972 0.0628208 -0.00969269 0.288604 0.210095 0.0858343 -1.12132 -0.0490465 0.0700284 0.118616 -0.877868 -0.743166 0.038778 -0.669845 0.0186955 0.24016 0.676667 -0.543503 0.258468 1.03666 -0.169013 0.14496 -0.25946
184 -0.402198 -0.73743 -1.05116 0.176994 0.151656 -0.0464108 0.227164 0.230237 0.127186 -1.01087 -0.0426988 0.102496 0.0669686 -0.83416 -0.576756 0.0734018 -0.555143 0.0464725 0.284064 0.59767 -0.481911 0.319163 0.976465 -0.126697 0.133931 -0.309
53 -0.366564 -0.73217 -1.14111 0.285717 0.0946502 -0.0082523 0.306553 0.19687 0.11656 -1.19774 -0.0337317 0.0490024 0.107411 -0.907853 -0.789777 0.0281313 -0.744706 -0.0188891 0.221696 0.78174 -0.563395 0.276519 1.10306 -0.179499 0.114323 -0.33262
159 -0.359057 -0.795488 -0.909965 -0.0492114 0.351957 -0.0950945 -0.0331512 0.344116 0.0759828 -0.708128 -0.0862544 0.131206 0.0520109 -1.09282 -0.212407 0.101127 -0.123258 0.296048 0.463139 0.174878 -0.283337 0.416421 1.03752 -0.0575602 0.172226 -0.154279
171 -0.847143 -1.01957 -1.21714 -0.161777 0.510079 -0.0721919 -0.0921544 0.307997 0.288502 -0.933751 0.166847 0.328858 -0.148571 -1.19063 0.0521526 0.280728 -0.137591 0.143641 0.426816 0.450281 -0.381107 0.623419 0.862696 -0.00148276 0.185006 -0.556791
21 -0.799563 -0.978859 -1.21901 -0.205509 0.555402 -0.0613887 -0.0921459 0.342923 0.285843 -0.943573 0.134842 0.34353 -0.142583 -1.25304 0.0397665 0.283934 -0.125226 0.183858 0.47119 0.427939 -0.383114 0.640752 0.868253 -0.00407248 0.190262 -0.52232
167 -0.795895 -0.991611 -1.21776 -0.191977 0.523715 -0.0953949 -0.0898417 0.299532 0.239926 -0.851535 0.15491 0.332891 -0.143288 -1.17926 0.0992701 0.270619 -0.0945939 0.155165 0.456138 0.389237 -0.369877 0.654011 0.813475 0.0118555 0.170378 -0.499212
129 -0.63928 -0.845752 -1.02855 -0.0989068 0.38125 -0.0722309 0.00423362 0.290277 0.175981 -0.802539 0.0723805 0.262508 -0.0865203 -0.99706 -0.0962127 0.210152 -0.202152 0.125799 0.387152 0.389548 -0.388726 0.498595 0.874706 -0.0273055 0.168056 -0.417888
127 -0.514498 -0.776096 -0.985189 -0.045235 0.319059 -0.0521022 0.0527823 0.279487 0.117897 -0.759513 0.0134285 0.164936 -0.0384836 -0.919893 -0.173274 0.147297 -0.221193 0.134401 0.365006 0.369305 -0.369093 0.43418 0.895473 -0.0521912 0.165405 -0.305547
133 -0.636008 -0.901257 -1.12795 -0.0991414 0.411844 -0.0705196 -0.0093143 0.312158 0.174681 -0.850847 0.0419223 0.260025 -0.0630341 -1.11848 -0.0810337 0.216427 -0.175045 0.190857 0.444571 0.40877 -0.398294 0.587629 0.92025 -0.0457222 0.204483 -0.409272
176 -0.470158 -0.777196 -0.989687 -0.0975244 0.341598 -0.0701068 -0.00501125 0.349786 0.0920405 -0.798345 -0.0675628 0.205712 0.0197646 -1.09773 -0.178493 0.165409 -0.185964 0.258533 0.457862 0.274714 -0.363879 0.497111 0.999915 -0.0796587 0.198755 -0.214067
148 -0.744902 -0.965054 -1.18255 -0.192455 0.499416 -0.0920944 -0.0640556 0.34706 0.214936 -0.878421 0.105374 0.311975 -0.121651 -1.22251 0.023199 0.231277 -0.103412 0.184477 0.452463 0.404406 -0.395279 0.611804 0.904636 -0.0259699 0.196777 -0.450176
112 -0.402519 -0.744511 -0.863255 -0.0750422 0.3391 -0.0676477 -0.052109 0.379328 0.0446028 -0.713242 -0.0769049 0.185311 0.0341073 -1.12964 -0.2198 0.131047 -0.126278 0.328236 0.460431 0.157946 -0.304175 0.458165 1.01358 -0.052186 0.174834 -0.121147
173 -0.816981 -0.948299 -1.11891 -0.150126 0.475556 -0.0887864 -0.0903912 0.25005 0.309671 -0.873853 0.175183 0.278585 -0.158527 -1.02507 0.0671484 0.276948 -0.136122 0.0628787 0.364437 0.434547 -0.385751 0.556518 0.752684 -0.00107426 0.147937 -0.565453
150 -0.819177 -0.963738 -1.16372 -0.183469 0.527582 -0.0945381 -0.0957236 0.325637 0.33051 -0.974184 0.168743 0.360903 -0.167417 -1.27874 0.0592664 0.291728 -0.137557 0.148505 0.46282 0.440803 -0.392163 0.673796 0.921324 -0.0169582 0.200148 -0.581353
146 -0.532963 -0.734578 -0.916093 -0.0814602 0.365067 -0.050556 -0.0260611 0.280483 0.169413 -0.804829 0.0316808 0.201769 -0.0192904 -1.0633 -0.139843 0.179009 -0.157271 0.189049 0.384981 0.358212 -0.342151 0.452309 0.883425 -0.0415819 0.162294 -0.342778
96 -0.178165 -0.838778 -0.90045 -0.098664 0.352142 -0.0727938 0.0659054 0.371293 -0.0115856 -0.70517 -0.223557 -0.00180936 0.138179 -1.13984 -0.325749 0.00615135 -0.151016 0.368892 0.479721 0.0792208 -0.336866 0.408426 1.22983 -0.0908397 0.165257 -0.0338939
155 -0.334778 -0.784577 -0.88464 -0.0718137 0.38072 -0.0851411 0.00365856 0.361085 0.0809109 -0.730728 -0.145656 0.0508752 0.0634306 -1.11406 -0.289517 0.0863721 -0.204745 0.295382 0.398926 0.193089 -0.32486 0.401813 1.15636 -0.0708056 0.163134 -0.129241
174 -0.746539 -0.982759 -1.1742 -0.209657 0.522886 -0.0658207 -0.0816123 0.332384 0.253196 -0.89901 0.1361 0.289134 -0.125796 -1.16307 0.0663041 0.251604 -0.107901 0.162124 0.459442 0.398672 -0.380072 0.641274 0.885006 -0.0200359 0.185026 -0.480971
80 -0.0571774 -0.570607 -0.801582 -0.048106 0.267368 -0.0677933 0.0226141 0.428109 -0.104096 -0.774155 -0.299782 0.0836664 0.223997 -1.29807 -0.497859 0.0407353 -0.207769 0.490543 0.595761 0.104252 -0.38892 0.409142 1.37898 -0.131996 0.23495 0.0555661
118 -0.223002 -0.801492 -0.89738 -0.0672246 0.326774 -0.0853569 0.0927405 0.358489 -0.0035755 -0.704494 -0.216922 0.0350924 0.129113 -1.02906 -0.327749 0.0279507 -0.154963 0.337693 0.449944 0.105347 -0.350978 0.417118 1.17835 -0.0596826 0.163923 -0.0521244
170 -0.786388 -0.967902 -1.19113 -0.191471 0.495941 -0.0530571 -0.0820391 0.341559 0.245932 -0.913521 0.142095 0.315594 -0.129425 -1.16118 0.0594037 0.269734 -0.112208 0.139664 0.431587 0.396314 -0.386295 0.625922 0.865791 -0.0150342 0.17101 -0.509983
130 -0.623622 -0.918959 -1.15028 -0.016774 0.311602 -0.0363271 0.0790369 0.229486 0.208815 -0.896757 0.0490332 0.156902 -0.0377825 -0.898968 -0.26474 0.132853 -0.339075 0.0529155 0.313747 0.54696 -0.423073 0.447787 0.88496 -0.0591253 0.143796 -0.406178
82 -0.170843 -0.56514 -0.771042 -0.0718612 0.228826 -0.050907 0.0413534 0.372875 -0.0254514 -0.695103 -0.202231 0.12134 0.113325 -1.05618 -0.371921 0.0833618 -0.219736 0.33843 0.483077 0.213103 -0.387063 0.374093 1.11198 -0.120098 0.24136 -0.0725428
57 -0.385748 -0.773295 -1.16937 0.2798 0.102116 -0.0244636 0.308828 0.187039 0.13821 -1.17146 -0.0285379 0.0497082 0.100316 -0.873251 -0.756621 0.0240345 -0.722177 -0.0510724 0.236175 0.717756 -0.556875 0.297362 1.04013 -0.160314 0.138655 -0.350353
60 -0.25368 -0.706661 -1.0999 0.312511 0.088837 -0.023764 0.322272 0.197531 0.07196 -1.12338 -0.12479 0.0555724 0.107911 -0.912815 -0.845647 -0.00509183 -0.7164 -0.00479772 0.25133 0.695328 -0.572172 0.26948 1.0768 -0.203425 0.110537 -0.235505
158 -0.375283 -0.71278 -0.864029 -0.0315342 0.278813 -0.0632874 0.00268016 0.31796 0.0714113 -0.686733 -0.0640751 0.148022 0.0438106 -1.02891 -0.252679 0.124975 -0.160174 0.290805 0.453247 0.224528 -0.329923 0.420596 0.94539 -0.068293 0.169108 -0.154144
137 -0.767395 -0.965273 -1.13695 -0.193426 0.493334 -0.0728262 -0.0388945 0.304006 0.242962 -0.881154 0.0990896 0.297294 -0.145546 -1.13445 0.0114925 0.244779 -0.142484 0.125782 0.400387 0.431844 -0.38889 0.622488 0.868498 -0.0245084 0.175684 -0.504854
152 -0.796482 -0.982365 -1.19534 -0.171491 0.507573 -0.0760757 -0.0828563 0.336801 0.280658 -0.942136 0.157837 0.335903 -0.121788 -1.17575 0.0442912 0.271982 -0.13418 0.131034 0.436652 0.453975 -0.395228 0.60492 0.804279 -0.0229879 0.180316 -0.52813
107 -0.113111 -0.760667 -0.831354 0.0216078 0.262514 -0.0643197 0.129545 0.310236 0.00376121 -0.748106 -0.234459 -0.0483034 0.189313 -0.972927 -0.483224 -0.0381458 -0.278582 0.301731 0.383754 0.18202 -0.366521 0.304419 1.21903 -0.107133 0.174768 -0.00858701
115 0.0649439 -0.515827 -0.716339 0.0553582 0.145361 -0.0460668 0.131181 0.372975 -0.12543 -0.72311 -0.345345 0.0219176 0.235923 -1.08272 -0.596192 -0.048976 -0.25618 0.457844 0.4865 0.0974578 -0.375779 0.310929 1.29847 -0.132643 0.195571 0.0956925
87 -0.109567 -0.524789 -0.817361 -0.0509623 0.239212 -0.0492478 0.0772749 0.396648 -0.105808 -0.714968 -0.230903 0.0903939 0.165861 -1.14513 -0.461538 0.0558687 -0.202761 0.440857 0.529095 0.129669 -0.365087 0.400866 1.22926 -0.115512 0.213695 0.0730301
41 -0.322559 -0.623447 -1.05025 0.376322 0.0278592 -0.0109039 0.336811 0.127837 0.162086 -1.19684 -0.0395537 0.0455367 0.115252 -0.808686 -0.883714 0.0132202 -0.838023 -0.107455 0.146272 0.842718 -0.566877 0.234349 1.05314 -0.216656 0.104708 -0.330286
61 -0.276079 -0.634973 -1.03106 0.31435 0.0576953 -0.00532666 0.322365 0.207128 0.117 -1.19248 -0.0814852 0.0680717 0.120551 -0.925695 -0.86615 0.0115467 -0.758522 -0.0103823 0.231839 0.712161 -0.574948 0.27714 1.1563 -0.209729 0.140668 -0.265309
73 -0.367587 -0.672589 -1.0466 0.313528 0.091695 0.000691832 0.313512 0.172474 0.124597 -1.21277 -0.0171491 0.0679929 0.106319 -0.849979 -0.798671 0.026777 -0.755042 -0.0469647 0.207531 0.76789 -0.569243 0.255307 1.10029 -0.189355 0.118867 -0.311212
45 -0.345546 -0.613597 -1.05041 0.359593 0.0314981 0.0109117 0.354008 0.155403 0.138071 -1.24982 -0.0365971 0.106511 0.060898 -0.902637 -0.898496 0.0347247 -0.820836 -0.0946569 0.208048 0.859626 -0.604503 0.303768 1.15229 -0.206497 0.133045 -0.395556
59 -0.247932 -0.647696 -0.947033 0.291246 0.0659212 -0.0139675 0.30296 0.15956 0.0866737 -1.03003 -0.0565728 0.035197 0.127477 -0.79508 -0.743253 0.0116643 -0.66319 -0.0311788 0.210746 0.649596 -0.502459 0.226756 1.04046 -0.193209 0.102534 -0.229528
189 -0.294839 -0.674391 -0.851389 0.0807418 0.186587 -0.0501113 0.11607 0.238555 0.0845159 -0.783503 -0.0561853 0.0654196 0.0507166 -0.832185 -0.41385 0.0677043 -0.379425 0.104105 0.268703 0.407269 -0.386171 0.290226 0.96407 -0.0902069 0.119224 -0.200007
71 -0.428967 -0.683017 -1.13492 0.337305 0.0942492 -0.0199667 0.341927 0.170973 0.213338 -1.27405 0.0165816 0.130154 0.0527364 -0.888195 -0.831027 0.0716072 -0.824459 -0.0951633 0.221023 0.901128 -0.629849 0.315454 1.1142 -0.195312 0.127423 -0.410658
105 -0.0282138 -0.606572 -0.833167 -0.0092514 0.25308 -0.075631 0.0932614 0.427569 -0.116199 -0.83683 -0.326077 0.0400808 0.208063 -1.23791 -0.545494 -0.0224258 -0.22937 0.493353 0.5533 0.0997891 -0.425879 0.372458 1.35599 -0.116362 0.228589 0.0582376
85 -0.159154 -0.492392 -0.798474 0.0126961 0.20747 -0.0847241 0.0377391 0.387273 -0.0689545 -0.738553 -0.218612 0.112334 0.211282 -1.19915 -0.547354 0.0445501 -0.241669 0.429726 0.540524 0.149833 -0.361069 0.377835 1.25919 -0.14099 0.174157 0.0600577
114 -0.377717 -0.690644 -0.893705 -0.014967 0.21494 -0.0727524 0.008543 0.285322 0.0174606 -0.681773 -0.0682472 0.18251 0.0684448 -0.939507 -0.330612 0.11995 -0.203352 0.268397 0.44072 0.270283 -0.320555 0.393062 0.963895 -0.109867 0.177352 -0.156709
91 -0.0816583 -0.480853 -0.744807 0.00171407 0.195209 -0.0209277 0.144999 0.374272 -0.0614644 -0.812306 -0.21265 0.119792 0.138496 -1.06254 -0.485234 0.0529659 -0.294151 0.353423 0.476927 0.252958 -0.401383 0.337035 1.22767 -0.141048 0.224078 -0.0491021
92 -0.117617 -0.464687 -0.727477 0.0146948 0.232215 -0.0544206 0.0464783 0.34102 -0.0440148 -0.659653 -0.175015 0.0987658 0.117315 -1.05395 -0.404997 0.0649964 -0.229579 0.353422 0.447709 0.201878 -0.340987 0.34476 1.07786 -0.126449 0.199753 -0.0537216
160 -0.491212 -0.842496 -0.968126 -0.0774359 0.358961 -0.0958365 -0.096665 0.347871 0.112628 -0.700248 -0.0472836 0.170943 0.0271375 -1.16992 -0.176875 0.166125 -0.118921 0.288423 0.482022 0.235186 -0.333534 0.512843 1.0084 -0.066046 0.165824 -0.179418
179 -0.68832 -0.94091 -1.15323 -0.193483 0.537941 -0.0674813 -0.135291 0.369477 0.219158 -0.761021 0.0674597 0.247178 -0.102321 -1.23602 0.0585076 0.234823 -0.0311586 0.268726 0.479418 0.268246 -0.328812 0.61466 0.928466 0.00694549 0.187751 -0.391014
99 0.0272855 -0.38983 -0.658268 0.00283292 0.150559 -0.0595157 0.0877701 0.380478 -0.114864 -0.715156 -0.26707 0.0920678 0.1934 -1.0864 -0.533588 0.00675293 -0.268741 0.397452 0.496902 0.12973 -0.351755 0.323086 1.27038 -0.148283 0.236764 0.0685035
140 -0.180131 -0.546736 -0.807101 -0.0532923 0.264353 -0.0649892 0.0366172 0.382806 -0.0808605 -0.665548 -0.228307 0.0899343 0.151869 -1.10739 -0.379716 0.0471233 -0.14666 0.432503 0.499773 0.0922462 -0.345957 0.411947 1.10652 -0.085959 0.206977 0.0342774
135 -0.725052 -0.884619 -1.09397 -0.170016 0.443308 -0.067301 -0.0762981 0.299445 0.258104 -0.847019 0.133924 0.282453 -0.135746 -1.1128 0.00743488 0.238236 -0.151828 0.115945 0.417468 0.409564 -0.375843 0.58333 0.79859 -0.0259766 0.187825 -0.483914
186 -0.206972 -0.571638 -0.869465 0.225426 0.0715725 -0.0340794 0.202592 0.173087 0.0413778 -0.905131 -0.122607 0.0238325 0.124472 -0.782924 -0.659785 -0.0113619 -0.568702 0.0422778 0.214462 0.518679 -0.437405 0.22335 0.931742 -0.127716 0.111663 -0.16537
161 -0.366885 -0.706149 -1.11849 0.342111 0.0470479 -0.0223968 0.391502 0.164559 0.141204 -1.25029 -0.0344646 0.0717073 0.0714362 -0.848902 -0.878219 0.000989906 -0.805193 -0.115354 0.196035 0.840306 -0.600446 0.268213 1.02396 -0.203465 0.106119 -0.369907
43 -0.324103 -0.633129 -1.07702 0.348478 0.0314797 -0.00830748 0.378909 0.15832 0.138477 -1.29159 -0.0643714 0.0908284 0.0836277 -0.874213 -0.878758 0.0241416 -0.798419 -0.0597061 0.218301 0.85751 -0.604203 0.292116 1.13772 -0.218287 0.127699 -0.35191
39 -0.359463 -0.597509 -1.07504 0.379782 0.0498417 -0.0147018 0.368278 0.143153 0.178584 -1.32555 -0.0489828 0.075528 0.0791838 -0.933967 -0.922652 0.0394822 -0.884005 -0.105175 0.209288 0.907115 -0.632286 0.282936 1.18683 -0.205349 0.137247 -0.395822
156 -0.276707 -0.643446 -1.07425 0.384671 0.0581707 0.00108289 0.323845 0.123485 0.108027 -1.17604 -0.0468505 0.030922 0.138531 -0.889943 -0.917636 -0.0128236 -0.813396 -0.0757118 0.197392 0.792924 -0.610816 0.25051 1.11488 -0.203115 0.0884056 -0.289878
64 -0.277998 -0.62877 -1.07835 0.339624 0.0533418 -0.000375163 0.371712 0.195623 0.119401 -1.21776 -0.068339 0.0884506 0.135519 -0.968468 -0.90822 -0.00563671 -0.80349 -0.0380325 0.259296 0.804796 -0.621593 0.290237 1.1862 -0.200562 0.141189 -0.306084
196 -0.268568 -0.444501 -0.697186 0.193856 0.0640253 -0.00943718 0.199336 0.12906 0.118726 -0.787496 0.000839742 0.0861192 0.0545669 -0.620904 -0.519694 0.0332484 -0.484422 -0.0488066 0.144427 0.539481 -0.386318 0.219717 0.729723 -0.110261 0.0812139 -0.261889
40 -0.377549 -0.636981 -1.08812 0.350985 0.0543102 0.00905298 0.390883 0.159902 0.173286 -1.35373 -0.00345989 0.0941521 0.0782588 -0.891078 -0.903057 0.0391086 -0.853401 -0.139595 0.167641 0.917471 -0.634933 0.283257 1.11405 -0.19303 0.13409 -0.440738
44 -0.356505 -0.653331 -1.12656 0.349001 0.0597615 -0.0108746 0.386657 0.190621 0.187484 -1.36983 -0.0436145 0.0822016 0.0668738 -0.954775 -0.922443 0.0218604 -0.887343 -0.101394 0.19937 0.899059 -0.647339 0.314367 1.19858 -0.194139 0.123325 -0.403924
46 -0.372224 -0.653711 -1.0847 0.332096 0.0444111 -0.0203303 0.353476 0.169235 0.170813 -1.31928 -0.0216408 0.0945523 0.0700681 -0.927778 -0.895978 0.0296943 -0.828805 -0.125649 0.170327 0.899186 -0.649751 0.312225 1.14508 -0.207056 0.144348 -0.424059
120 -0.22322 -0.655345 -0.86921 0.0319978 0.21223 -0.0365383 0.109496 0.261092 0.0358458 -0.765576 -0.121225 0.0609394 0.113344 -0.888199 -0.384352 0.017362 -0.299823 0.234267 0.327904 0.250154 -0.352408 0.282412 0.995426 -0.0953073 0.146381 -0.110381
35 -0.324094 -0.633855 -1.09529 0.335279 0.0374984 -0.0491537 0.343642 0.177649 0.124492 -1.23306 -0.0929465 0.0834831 0.122903 -0.907865 -0.867629 0.0312304 -0.761806 -0.0388352 0.238756 0.784836 -0.552889 0.263916 1.1432 -0.221323 0.149696 -0.270961
66 -0.277219 -0.658662 -1.07319 0.336192 0.0307885 0.0102441 0.377326 0.17374 0.13953 -1.27922 -0.0678599 0.0400843 0.12976 -0.953965 -0.933269 -0.0116416 -0.835254 -0.0686466 0.213705 0.835543 -0.636964 0.280324 1.20038 -0.208699 0.140371 -0.327075
15 -0.741541 -0.954429 -1.11787 -0.124164 0.445327 -0.0583087 -0.0595832 0.277422 0.218766 -0.789509 0.141826 0.284051 -0.111466 -1.04988 -0.00503808 0.228267 -0.139644 0.129163 0.400124 0.38111 -0.32844 0.55213 0.790199 -0.00523968 0.159003 -0.427135
151 -0.28209 -0.497632 -0.644067 0.0377091 0.186522 -0.0183342 0.0764418 0.159505 0.104498 -0.566194 0.00011221 0.0951354 0.0160774 -0.614071 -0.214124 0.0652657 -0.236993 0.067739 0.226776 0.304194 -0.284591 0.242062 0.591286 -0.0639184 0.102618 -0.202894
106 -0.0454534 -0.61939 -0.824391 -0.0348628 0.252864 -0.0450498 0.0835321 0.375875 -0.108385 -0.725855 -0.307232 0.0216988 0.196633 -1.18198 -0.457948 0.0203033 -0.191988 0.458658 0.537511 0.0535374 -0.373192 0.382264 1.26128 -0.134767 0.205011 0.0505258
76 -0.310925 -0.671072 -0.943472 0.0197944 0.230029 -0.0977828 0.0539693 0.309472 -0.00776933 -0.716904 -0.135787 0.113031 0.149653 -1.03883 -0.465087 0.078984 -0.256732 0.295822 0.461732 0.220089 -0.360461 0.35442 1.06783 -0.107129 0.18021 -0.0444009
27 -0.0437408 -0.452318 -0.890271 0.104566 0.178404 -0.0822778 0.142148 0.3384 -0.15308 -0.721676 -0.309355 0.0848874 0.229619 -1.17906 -0.636483 -0.0162289 -0.309997 0.426268 0.51869 0.173677 -0.403792 0.35125 1.26688 -0.169067 0.1852 0.13032
50 -0.309543 -0.643688 -1.05517 0.325593 0.0430997 -0.0158817 0.365399 0.167453 0.118706 -1.18863 -0.0460694 0.0485114 0.112058 -0.869444 -0.841047 0.0129335 -0.795051 -0.0493393 0.21223 0.789908 -0.581824 0.266617 1.07323 -0.197537 0.132053 -0.311117
34 -0.459539 -0.665244 -1.13847 0.341225 0.08675 0.00298521 0.337436 0.179562 0.199153 -1.32931 0.00864422 0.129449 0.0422439 -0.946879 -0.848972 0.0660245 -0.828765 -0.0988601 0.209868 0.942832 -0.626783 0.324191 1.1405 -0.200162 0.122368 -0.454139
30 -0.418322 -0.811975 -1.2249 0.30849 0.0872191 -0.0384668 0.389965 0.25843 0.146474 -1.32989 -0.0203968 0.124321 0.0631304 -0.949965 -0.858428 0.0719599 -0.846871 -0.0758497 0.27721 0.885371 -0.661462 0.355774 1.26837 -0.244677 0.163503 -0.382878
63 -0.317953 -0.661804 -1.02323 0.316156 0.0916285 -0.0181845 0.298263 0.164091 0.118824 -1.12277 -0.055383 0.0147172 0.125859 -0.84442 -0.844301 0.0170286 -0.771275 -0.0773841 0.187227 0.758759 -0.587923 0.248444 1.03621 -0.191202 0.096567 -0.30974
185 -0.255852 -0.551474 -0.85962 0.26462 0.0792974 0.00487248 0.260705 0.156191 0.10339 -0.936831 -0.0469772 0.0450469 0.0956211 -0.723017 -0.687938 0.0114377 -0.621431 -0.0360068 0.166678 0.613991 -0.491647 0.212545 0.895709 -0.140319 0.0960787 -0.23737
5 -0.403128 -0.738936 -0.911144 -0.0662816 0.352029 -0.0544941 -0.0259669 0.330166 0.088869 -0.721417 -0.0671618 0.149392 0.0340037 -1.02982 -0.206369 0.123744 -0.146835 0.265505 0.408994 0.254575 -0.311947 0.440503 0.930979 -0.0551818 0.153846 -0.21612
6 -0.58478 -0.84641 -1.06799 -0.12934 0.452278 -0.0592588 -0.0538786 0.334378 0.188923 -0.818199 0.0262055 0.243974 -0.0610033 -1.25938 -0.0653027 0.229987 -0.118149 0.279841 0.487244 0.279136 -0.356775 0.56502 0.986609 -0.0452872 0.171538 -0.325565
72 -0.352438 -0.708123 -1.0782 0.267934 0.112884 -0.0230633 0.286845 0.227313 0.146334 -1.11384 -0.0376592 0.0750518 0.077381 -0.806704 -0.713435 0.0184673 -0.692018 -0.0372697 0.234601 0.709853 -0.535809 0.264942 1.02197 -0.154288 0.113468 -0.330767
157 -0.385842 -0.777726 -0.94464 0.0119452 0.250677 -0.0277371 0.0619941 0.260301 0.043041 -0.711441 -0.0696608 0.100596 0.0655297 -0.851564 -0.299386 0.0585557 -0.2458 0.18479 0.352273 0.282945 -0.323179 0.351597 0.890165 -0.0827412 0.129908 -0.158016
25 -0.0956002 -0.365302 -0.587163 0.0127056 0.166795 -0.027309 0.066161 0.263973 -0.044394 -0.624149 -0.146836 0.0998129 0.0999957 -0.863168 -0.378417 0.0346086 -0.203672 0.286206 0.380608 0.168872 -0.305332 0.275341 0.907688 -0.104611 0.145142 -0.00820041
188 -0.3804 -0.748794 -0.906899 -0.0493092 0.331783 -0.0809881 0.0233004 0.28961 0.0817354 -0.702426 -0.0525606 0.126635 0.0088596 -0.988715 -0.207098 0.122832 -0.172343 0.214095 0.374659 0.254596 -0.314118 0.418702 0.95411 -0.0650381 0.161856 -0.188003
113 -0.0972466 -0.669523 -0.804125 0.0179815 0.254017 -0.08147 0.102424 0.319229 -0.0456363 -0.745167 -0.248646 -0.00256883 0.187944 -1.01676 -0.469077 -0.0213029 -0.261552 0.350205 0.413888 0.153236 -0.359409 0.327861 1.20735 -0.107017 0.156281 0.0123218
37 -0.418723 -0.740208 -1.14601 0.345063 0.0960904 -0.024604 0.354878 0.171069 0.19087 -1.30026 -0.0108636 0.0696702 0.0932337 -0.898396 -0.857954 0.0369603 -0.854283 -0.0939971 0.196506 0.863755 -0.623737 0.289781 1.15694 -0.197658 0.121215 -0.380822
49 -0.200834 -0.33445 -0.597843 0.184896 0.0525973 -0.0295221 0.215562 0.113966 0.0815109 -0.724718 -0.0401903 0.0382701 0.0517997 -0.573679 -0.485715 0.0166595 -0.472317 -0.0318667 0.126506 0.498217 -0.339047 0.17076 0.682227 -0.128742 0.0635294 -0.189302
194 -0.088182 -0.633966 -0.748428 0.0103125 0.283497 -0.0964605 0.127595 0.359337 -0.0661227 -0.715772 -0.27709 -0.0273988 0.171343 -1.08021 -0.463197 -0.0104632 -0.213571 0.34962 0.436432 0.119114 -0.348493 0.372121 1.26878 -0.0981623 0.167365 0.0272166
163 -0.213969 -0.602817 -0.811747 -0.00161932 0.258202 -0.044842 0.107795 0.31852 0.00175543 -0.748855 -0.170277 0.0901911 0.101472 -1.05312 -0.424292 0.0365443 -0.279133 0.269083 0.424511 0.247636 -0.392283 0.385757 1.09996 -0.0996988 0.174638 -0.103638
175 -0.600613 -0.850701 -1.06856 -0.118861 0.380988 -0.0509866 0.000596028 0.305756 0.167413 -0.857674 0.0217489 0.23948 -0.053798 -1.09678 -0.112715 0.188359 -0.194975 0.177419 0.406621 0.371373 -0.380412 0.518779 0.953299 -0.0385085 0.159079 -0.346481
187 -0.447155 -0.815005 -0.925363 -0.0898814 0.349983 -0.0586224 0.0148548 0.310857 0.131539 -0.709291 -0.0027696 0.134337 -0.0268045 -0.93299 -0.134406 0.122511 -0.153808 0.181046 0.378759 0.248677 -0.315002 0.429117 0.91733 -0.0498742 0.143588 -0.243734
38 -0.342201 -0.674144 -1.18281 0.374545 0.0866177 0.0189011 0.331907 0.16839 0.146862 -1.3241 -0.02211 0.0817018 0.122124 -0.995824 -0.955498 0.022751 -0.876096 -0.118731 0.208999 0.867423 -0.651435 0.259549 1.1283 -0.202809 0.111953 -0.339622
77 -0.456436 -0.811639 -1.25624 0.188259 0.235855 -0.0500975 0.259516 0.339457 0.147024 -1.36121 -0.0470862 0.181286 0.073663 -1.30191 -0.697592 0.108127 -0.680441 0.118917 0.418248 0.730598 -0.621929 0.472634 1.37541 -0.174077 0.182335 -0.372909
78 -0.51838 -0.923424 -1.33202 0.162284 0.268164 -0.0362164 0.229307 0.354001 0.177044 -1.34183 -0.0630821 0.163892 0.0620983 -1.31151 -0.703251 0.109872 -0.655754 0.110347 0.444375 0.724842 -0.626534 0.507006 1.40506 -0.171189 0.204732 -0.376614
134 -0.384234 -0.766214 -0.948222 -0.0639583 0.297512 -0.048068 0.0790847 0.287268 0.091688 -0.702105 -0.0604567 0.136503 0.00142145 -0.907914 -0.198716 0.122089 -0.174336 0.182294 0.395645 0.284829 -0.335022 0.393507 0.898524 -0.0602184 0.159305 -0.214654
147 -0.567512 -0.737615 -0.892908 -0.108914 0.365259 -0.0715786 -0.0303587 0.257598 0.176621 -0.700892 0.0670652 0.213281 -0.0773676 -0.918798 -0.0344583 0.161705 -0.108008 0.12301 0.367175 0.31039 -0.310494 0.473543 0.730366 -0.012097 0.147109 -0.34136
177 -0.538862 -0.829812 -0.980409 -0.125627 0.414775 -0.0819933 -0.0505048 0.297492 0.139309 -0.723739 0.0381813 0.202725 -0.0594903 -1.04195 -0.0537548 0.192765 -0.0901198 0.242154 0.420886 0.240887 -0.299561 0.499799 0.85982 -0.014905 0.138615 -0.301561
190 -0.341786 -0.658502 -1.02135 0.299859 0.0951963 0.00200015 0.321189 0.201485 0.134554 -1.14848 -0.0138509 0.0762326 0.0705252 -0.830028 -0.768863 0.0373319 -0.720401 -0.0667115 0.230522 0.766413 -0.548116 0.299303 1.08692 -0.201707 0.11386 -0.319232
195 -0.336531 -0.572172 -0.735239 -0.0226018 0.219795 -0.0318087 0.0295612 0.226247 0.0691871 -0.634963 -0.0374382 0.127316 0.0222157 -0.773953 -0.219751 0.0824753 -0.209038 0.130963 0.300488 0.261805 -0.305482 0.328765 0.74743 -0.0618633 0.116388 -0.184166
198 -0.149831 -0.456393 -0.614507 0.0308982 0.177801 -0.0512422 0.0638844 0.265354 0.0063978 -0.58032 -0.126078 0.081339 0.096878 -0.796801 -0.341729 0.0162522 -0.224924 0.226117 0.322877 0.186894 -0.310542 0.272735 0.867589 -0.0719458 0.121856 -0.052683
183 -0.364888 -0.667701 -1.03345 0.239147 0.114816 -0.0158038 0.28376 0.218849 0.148975 -1.10246 -0.0116339 0.0998001 0.0485217 -0.849308 -0.647079 0.055927 -0.630584 -0.0113037 0.228887 0.704842 -0.523448 0.285919 0.968989 -0.15629 0.112854 -0.319745
29 -0.322902 -0.628986 -0.968337 0.264985 0.0562112 -0.0163538 0.319183 0.201962 0.134636 -1.07221 -0.0217797 0.077117 0.0732658 -0.750432 -0.721771 0.0197334 -0.697954 -0.0737535 0.187744 0.730181 -0.507877 0.239649 0.989059 -0.189972 0.0995471 -0.320978
178 -0.528231 -0.812168 -0.939135 -0.0898276 0.402431 -0.0539994 -0.020777 0.268354 0.183902 -0.671421 0.010774 0.18016 -0.0627107 -1.00377 -0.0709211 0.179197 -0.102863 0.211919 0.407319 0.284632 -0.313515 0.47136 0.819023 -0.00883688 0.127824 -0.319123
145 -0.540734 -0.792762 -0.974128 -0.0991467 0.39023 -0.0930615 -0.044456 0.301458 0.150826 -0.772023 0.0317178 0.236124 -0.0461618 -1.09618 -0.0928938 0.179872 -0.140724 0.213834 0.42037 0.300713 -0.358377 0.496495 0.917416 -0.0542903 0.181685 -0.328431
191 -0.215455 -0.484567 -0.74542 0.0450811 0.174359 -0.0537143 0.0917911 0.245383 0.0103167 -0.644744 -0.0797119 0.0907262 0.0578077 -0.816989 -0.369077 0.0617864 -0.257192 0.188012 0.311226 0.256255 -0.317231 0.286272 0.862015 -0.106055 0.152424 -0.126073
192 -0.552684 -0.805277 -1.02088 -0.104094 0.369307 -0.0401049 -0.0363664 0.286571 0.19867 -0.78103 0.0590797 0.194216 -0.080964 -0.982118 -0.0560173 0.167891 -0.133905 0.157797 0.361591 0.320082 -0.338629 0.494419 0.856447 -0.044753 0.165596 -0.358617
197 -0.191886 -0.417303 -0.738546 0.196709 0.0283063 -0.026991 0.212752 0.119587 0.0667045 -0.787128 -0.0386941 0.0399709 0.0653086 -0.607718 -0.542085 0.0295808 -0.522927 -0.0329226 0.154923 0.517892 -0.383494 0.20098 0.760084 -0.116811 0.0908218 -0.183601
180 -0.356007 -0.684522 -1.09844 0.279299 0.110405 -0.0371048 0.321749 0.210525 0.123529 -1.19242 -0.0487872 0.11657 0.0715581 -0.993378 -0.791186 0.0497258 -0.713249 0.0236103 0.274446 0.728345 -0.593044 0.304496 1.16143 -0.199763 0.151499 -0.306524
182 -0.489528 -0.836391 -1.29315 0.300667 0.168111 -0.0242394 0.337533 0.274964 0.175803 -1.4142 -0.0281241 0.123008 0.0527463 -1.11235 -0.854773 0.0754657 -0.828027 -0.0323296 0.324688 0.892724 -0.68158 0.421968 1.35892 -0.230969 0.172566 -0.423277
144 0.00275817 -0.393788 -0.658906 0.0895247 0.126706 -0.0434072 0.149294 0.27657 -0.080145 -0.670266 -0.245417 0.0292191 0.202711 -1.01564 -0.592405 -0.0287719 -0.304212 0.335916 0.397943 0.173763 -0.405099 0.29172 1.11596 -0.140424 0.181706 0.0501088
181 -0.436127 -0.738708 -1.19665 0.329507 0.125698 -0.00820147 0.340731 0.226595 0.146825 -1.30367 -0.0156791 0.111696 0.0622651 -0.968995 -0.825365 0.0792417 -0.794953 -0.0577939 0.242298 0.852098 -0.603177 0.325895 1.20205 -0.215367 0.12908 -0.364583
79 -0.500652 -0.872786 -1.30568 0.225717 0.212953 -0.0344247 0.309775 0.338745 0.166872 -1.40209 -0.048164 0.165029 0.0672981 -1.29138 -0.791418 0.113064 -0.760558 0.0705307 0.387163 0.817865 -0.670687 0.464839 1.45621 -0.212475 0.211072 -0.390782
162 -0.24767 -0.579602 -0.808496 0.0349271 0.221765 -0.0381495 0.119263 0.269022 0.0576677 -0.798455 -0.100312 0.0880736 0.062904 -0.97928 -0.428829 0.0660507 -0.328602 0.218171 0.366622 0.30985 -0.410694 0.365393 1.00901 -0.111395 0.16798 -0.158465
