62 10
26 -1.09536 -0.24538 0.0774948 -0.0517231 -0.927582 1.20412 -0.294426 -0.393288 0.0449359 -0.584805
27 -0.959813 -0.373903 0.102136 0.112123 -0.971066 1.29451 -0.22792 -0.358765 0.0153575 -0.620602
28 -1.08056 -0.367802 0.0960482 0.0629673 -1.01766 1.25283 -0.185938 -0.363708 0.0546038 -0.747781
2 -1.11513 -0.296585 0.116509 0.101034 -0.976541 1.38339 -0.276626 -0.423086 0.00541941 -0.770632
20 -1.07088 -0.462517 -0.0294471 0.0486063 -0.866959 1.02407 -0.506407 -0.35997 0.130506 -0.52857
8 -1.09005 -0.546052 -0.0619059 0.073313 -0.921563 1.12016 -0.566169 -0.327093 0.190984 -0.55082
36 -0.782709 -0.383372 -0.0257446 -0.064852 -0.520248 0.512231 -0.590733 -0.118436 0.107518 -0.187809
30 -1.24704 -0.970459 -0.10018 -0.181964 -0.833891 0.540213 -1.1325 -0.0862394 0.397036 -0.23193
46 -1.23324 -0.980752 0.0408879 -0.101356 -0.681812 0.490929 -1.14917 0.0990625 0.402337 -0.224537
59 -0.787815 -0.602546 -0.0294496 -0.0877267 -0.63851 0.415629 -0.588885 -0.267156 0.157055 -0.153976
39 -1.12257 -1.14042 -0.138099 -0.14266 -0.868747 0.396611 -0.942663 -0.446602 0.169087 -0.222933
45 -1.03186 -0.90007 -0.207625 -0.0384022 -0.860341 0.533842 -0.883612 -0.369228 0.220801 -0.149021
15 -1.02516 -1.24897 -0.0870446 -0.176727 -0.821621 0.312342 -1.01879 -0.301279 0.318705 -0.203024
35 -1.01373 -1.19199 -0.146424 -0.0516584 -0.848133 0.443721 -0.985394 -0.458135 0.284419 -0.248171
24 -0.989343 -0.639028 -0.0642909 -0.138495 -0.682527 0.630507 -0.735711 -0.132953 0.2014 -0.215568
37 -1.16896 -0.801058 0.00350954 -0.00534481 -0.962885 0.848329 -0.833895 -0.373728 0.215787 -0.447739
55 -1.04323 -0.00736158 0.0243873 -0.121325 -0.904506 1.43221 -0.260361 -0.443962 -0.0490459 -0.559335
18 -1.24727 -0.0229149 0.0317976 -0.133376 -1.26096 1.65141 -0.215126 -0.520507 -0.150531 -0.71012
38 -1.22739 -1.21387 -0.0461998 -0.0830569 -0.923162 0.543725 -0.977526 -0.362167 0.311026 -0.272394
9 -1.19894 -0.931831 -0.0648157 -0.0920796 -0.844306 0.601164 -0.885536 -0.163953 0.165155 -0.326762
44 -1.1737 -1.19403 -0.119681 -0.13944 -0.9083 0.575547 -1.05714 -0.480038 0.287787 -0.256203
1 -1.125 -0.766583 -0.0848028 -0.0648157 -0.82511 0.71008 -0.970335 -0.245348 0.231403 -0.224067
41 -1.22634 -0.858753 -0.0121297 -0.0948143 -0.92371 0.786988 -0.953721 -0.31961 0.259351 -0.36139
34 -1.10177 -1.2698 -0.0836327 -0.105238 -0.920621 0.381861 -1.00981 -0.496243 0.292086 -0.183587
62 -1.14321 -0.843683 -0.174947 -0.0731426 -0.921886 0.825846 -0.900579 -0.433601 0.201675 -0.409159
29 -1.10176 -0.693875 -0.0818891 0.129778 -0.89337 0.782958 -0.758243 -0.195877 0.109319 -0.381991
25 -1.06181 -0.794782 0.0346244 -0.194256 -0.662524 0.443764 -0.99833 0.0111341 0.306313 -0.241
19 -1.21507 -0.924729 -0.0755015 -0.119635 -0.761505 0.496026 -1.14902 0.0204589 0.359061 -0.141281
52 -1.42455 -1.0177 -0.0318142 -0.253611 -0.699437 0.616494 -1.3785 0.150844 0.35259 -0.125976
12 -0.834398 -0.510541 -0.0416868 -0.0437344 -0.547117 0.525779 -0.669576 -0.0664814 0.126557 -0.14703
56 -0.997694 -0.599991 -0.0823227 -0.0515778 -0.702067 0.575275 -0.784464 -0.178436 0.231524 -0.265912
4 -0.971646 -0.726326 0.00209746 -0.101406 -0.674558 0.498137 -0.719892 -0.128391 0.211385 -0.279114
21 -1.28952 -0.997848 -0.0499861 0.0577545 -0.92983 0.614862 -1.05161 -0.169943 0.163683 -0.186255
51 -1.07502 -0.926416 -0.0684226 -0.0399419 -0.650106 0.52094 -1.06435 -0.0959999 0.243527 -0.106607
11 -1.26956 -0.815439 -0.191491 0.0436536 -1.03115 0.821059 -1.08871 -0.175317 0.300722 -0.225546
58 -1.33155 0.124362 -0.0494676 -0.312367 -1.267 1.68703 -0.503173 -0.659827 -0.173175 -0.591353
14 -1.25793 0.242703 -0.0401526 -0.250302 -1.15704 1.71303 -0.395479 -0.644163 -0.101124 -0.58276
6 -1.15456 0.0327369 -0.0256733 -0.279024 -1.08861 1.37913 -0.474141 -0.506528 -0.0292601 -0.461956
7 -1.17144 0.161044 0.0253269 -0.306747 -1.01676 1.47224 -0.349963 -0.548659 -0.169229 -0.581509
10 -1.2372 0.184341 0.0667073 -0.293287 -1.18488 1.58892 -0.295741 -0.486253 -0.16793 -0.617247
40 -0.989934 -0.269948 -0.0493577 -0.0832383 -0.83547 0.991694 -0.510941 -0.313622 0.0129235 -0.352078
54 -0.976341 -0.704578 -0.136226 -0.057286 -0.791003 0.714793 -0.787213 -0.347396 0.242003 -0.27432
53 -0.86956 -0.81934 -0.0907842 -0.139204 -0.708855 0.406783 -0.760259 -0.230528 0.174807 -0.203311
31 -1.16383 -0.636523 -0.191811 0.0556045 -0.957273 1.02505 -0.775762 -0.233729 0.215386 -0.394713
43 -1.10082 -0.720286 -0.228325 0.127797 -0.931441 0.870534 -0.873995 -0.20077 0.168603 -0.226819
48 -1.31482 -0.887825 -0.143788 0.111589 -1.01145 0.854702 -1.05469 -0.281035 0.214768 -0.260856
22 -1.0367 -0.896167 -0.0971403 -0.0845283 -0.737503 0.501674 -0.981893 -0.135282 0.28194 -0.212022
16 -1.22641 -0.830829 -0.0667892 -0.12412 -0.838647 0.698284 -1.02184 -0.148918 0.366655 -0.291644
50 -1.31345 -0.83585 -0.0337575 -0.0656027 -1.14088 0.959113 -0.91663 -0.417082 0.223606 -0.348882
47 -1.3301 -0.941841 -0.130202 -0.0648085 -1.14615 0.960483 -0.922291 -0.507374 0.234278 -0.431086
17 -0.911062 -0.854371 -0.0451307 -0.0388563 -0.778898 0.489488 -0.824313 -0.366974 0.169349 -0.21074
23 -0.732477 -0.086171 0.0131554 -0.10224 -0.635909 0.808064 -0.282791 -0.243073 -0.0691192 -0.345801
57 -1.05741 -0.178232 -0.0801958 -0.198295 -0.906658 1.09455 -0.48765 -0.41785 0.0194118 -0.359702
3 -1.25735 -0.925551 -0.22291 -0.07043 -1.00311 0.990002 -1.07073 -0.301872 0.293726 -0.373806
33 -1.23965 -0.0305908 0.0498825 -0.15474 -1.08508 1.29697 -0.43593 -0.505572 0.0561499 -0.458219
61 -1.04117 -0.171456 -0.0240229 -0.0706499 -0.909579 1.02041 -0.464566 -0.30793 0.114317 -0.386508
42 -0.991822 0.0770509 0.0669734 -0.155516 -0.961328 1.3759 -0.281671 -0.462169 -0.118141 -0.58104
60 -1.28463 -0.834614 -0.00356934 -0.0824258 -0.902724 0.791021 -0.863246 -0.178136 0.1897 -0.371312
49 -0.755036 0.0374028 0.0167589 -0.119671 -0.758942 1.00346 -0.286971 -0.294383 -0.0737225 -0.27828
5 -1.10694 -0.674083 -0.0360296 -0.14566 -0.613642 0.64561 -0.880633 -0.0760061 0.240307 -0.2352
13 -0.692669 -0.552159 -0.102357 -0.0980214 -0.509543 0.47424 -0.558237 -0.189579 0.130798 -0.16065
32 -0.757106 -0.0785909 0.0638016 -0.0872103 -0.769637 0.93724 -0.240219 -0.312852 -0.00839142 -0.401241
