34 20
19 0.0849821 0.242535 -0.923176 0.0892226 -0.0639715 0.0311952 0.769738 0.0428882 -0.56861 0.16871 -0.0175218 0.68494 -0.257519 -1.0244 -0.825865 0.306573 1.20363 -1.03435 -0.207327 -0.194726
33 0.100649 0.26332 -0.815563 0.0956977 -0.181496 0.12207 0.861876 0.0957614 -0.423282 0.0664767 -0.0838908 0.616769 -0.403754 -1.36263 -1.31101 0.385439 1.45211 -1.19326 -0.306976 -0.198603
30 0.296133 0.417583 -1.40919 0.0823507 0.0889903 0.206128 0.884776 0.156232 -0.54877 0.36967 -0.0963182 0.594654 -0.399319 -0.998938 -1.03181 0.170993 1.28033 -1.14534 -0.100722 -0.249623
34 0.0581833 0.270255 -1.00096 -0.110109 -0.0397701 0.0928976 0.822422 0.00975544 -0.598114 0.417786 -0.189454 0.782659 -0.394637 -1.01246 -0.946184 0.285514 1.10076 -1.0364 -0.0784709 -0.264486
20 0.521848 0.412145 -1.25364 0.0583408 -0.162912 -0.109527 0.678647 -0.0827809 -0.541233 0.352102 -0.342944 0.682671 -0.233971 -0.967306 -0.800724 0.123389 1.0927 -0.85956 -0.0211616 -0.283842
1 0.420069 0.157794 -0.722499 -0.0412002 -0.364639 0.0643615 0.837529 -0.260794 -0.580257 0.378221 -0.49846 0.823726 -0.253217 -1.277 -1.009 0.142379 0.693271 -0.517273 -0.0877665 -0.0818374
32 0.366292 0.262474 -0.684092 -0.113842 -0.00137581 0.178735 0.648797 0.0420099 -0.525198 0.347663 -0.223853 0.685326 -0.231048 -1.07638 -1.06412 0.245358 1.31766 -1.02497 -0.202334 -0.109402
14 0.544899 0.113799 -1.0984 -0.033602 -0.31236 0.22201 0.511625 -0.0895184 -0.658837 0.387074 -0.27861 0.589893 -0.171003 -1.1104 -0.886958 0.0914985 0.859004 -0.564194 -0.0839407 0.0708603
3 0.714682 0.195944 -1.37036 0.148627 -0.204641 0.196047 0.853288 0.0209698 -0.784563 0.210884 -0.381282 0.48308 -0.125477 -1.20043 -1.09182 0.260572 0.74869 -0.590347 -0.202894 0.109889
9 0.162343 0.137591 -0.720463 0.168796 -0.156393 0.176658 0.550072 0.087966 -0.535928 0.110151 -0.152471 0.57187 -0.125098 -1.21084 -0.827853 0.210731 1.17171 -1.18871 -0.387375 -0.126685
4 0.781264 0.102802 -1.20505 0.107219 -0.501258 0.145468 0.578472 -0.14706 -0.671116 0.197439 -0.370019 0.541365 -0.15378 -1.29284 -1.08208 0.215922 0.928996 -0.483804 -0.175814 0.207032
2 0.747385 0.0664125 -1.11685 0.305178 -0.667744 -0.0530513 0.874665 -0.259594 -0.916192 0.144346 -0.565737 0.859534 -0.0521939 -1.60353 -0.946301 0.260437 0.853087 -0.758116 -0.38447 -0.00175623
23 0.0953357 0.287778 -1.01815 0.125658 -0.0265954 0.0399588 0.808669 0.0867735 -0.513345 0.197896 -0.00584075 0.642608 -0.263268 -0.961711 -0.871144 0.265623 1.21162 -1.10526 -0.175366 -0.231074
10 0.52307 0.263499 -1.40703 0.126792 -0.164254 0.297577 0.64153 0.117151 -0.486663 0.211036 -0.11147 0.39055 -0.313021 -1.11609 -0.916581 0.0598964 0.883579 -0.701406 -0.0925066 0.0503442
6 0.676274 0.0354747 -0.626363 -0.13437 -0.455956 0.326309 0.739679 -0.271514 -1.14216 0.699593 -0.756003 1.17703 0.0120566 -1.69082 -1.17143 0.159011 0.930545 -1.21418 -0.439136 -0.0544538
11 0.541433 0.0427709 -0.659848 -0.0826825 -0.466956 0.394626 0.687042 -0.179403 -1.04943 0.626949 -0.660555 1.06277 -0.069501 -1.66925 -1.10596 0.104835 0.656949 -1.05544 -0.326792 -0.0602975
7 0.54718 0.103122 -0.607039 -0.233232 -0.418365 0.398688 0.799822 -0.250267 -1.00736 0.778543 -0.690595 1.16053 -0.108917 -1.68055 -1.22511 0.136826 0.903821 -1.11136 -0.336739 -0.0708546
25 0.520518 0.368179 -0.999579 -0.320444 0.103384 0.469264 0.839092 0.116584 -0.491865 0.733537 -0.485378 0.672934 -0.490189 -1.34682 -1.4016 -0.0150246 0.871276 -0.794058 0.0487102 -0.152661
28 0.671759 0.218044 -1.46792 0.12399 -0.0961695 0.465976 0.791216 0.150169 -0.645091 0.361554 -0.192474 0.383331 -0.296155 -1.15109 -1.04391 0.0508203 0.836525 -0.648812 -0.117227 0.106555
24 0.417689 0.406286 -1.47137 0.0660343 0.139156 0.336548 0.948696 0.18857 -0.683079 0.427227 -0.193801 0.574082 -0.360536 -1.1819 -1.09631 0.112267 0.994591 -0.963062 -0.0713689 -0.131073
8 0.842535 0.0782358 -1.06853 0.17278 -0.593063 0.0206319 0.670669 -0.254544 -0.871805 0.238101 -0.478267 0.750908 0.0219445 -1.28523 -0.848558 0.20892 0.836734 -0.634885 -0.318914 0.122519
31 0.271618 0.256939 -0.909845 0.283894 -0.361978 -0.217056 0.762838 -0.131912 -0.527119 -0.0642464 -0.205735 0.736817 -0.149864 -1.14053 -0.776568 0.39849 1.19569 -1.02892 -0.295916 -0.310904
16 0.143548 0.300582 -1.06754 0.224559 -0.0109128 0.0424409 0.773436 0.134949 -0.463625 0.0581742 0.0483586 0.495738 -0.226274 -0.946478 -0.779028 0.292819 1.24489 -1.0682 -0.215616 -0.16816
27 0.259009 0.398018 -1.2977 -0.0882261 0.029824 0.146565 0.67871 0.0748786 -0.524072 0.525008 -0.148774 0.640227 -0.43407 -0.991791 -0.925075 0.0782659 1.23043 -1.06529 0.0195785 -0.305752
29 0.43069 0.215564 -0.896253 -0.208013 -0.0283523 0.334541 0.411187 0.109985 -0.267983 0.357762 -0.140098 0.376549 -0.35755 -0.875125 -0.974654 0.0241415 1.03907 -0.670968 -0.0174197 0.010329
15 0.0948628 0.239434 -0.841721 0.0959219 -0.0825041 0.0424826 0.783186 0.0346351 -0.520054 0.191939 -0.0590642 0.661612 -0.258905 -1.02101 -0.868142 0.289812 1.15941 -1.01727 -0.2105 -0.205852
5 0.632163 0.0697034 -0.469638 -0.252429 -0.392814 0.410263 0.684709 -0.302575 -0.930885 0.698255 -0.646426 0.931641 -0.0612482 -1.47581 -1.06624 0.0616892 0.74592 -0.876006 -0.341046 0.0376892
26 0.379191 0.35624 -0.808504 -0.260234 0.193756 0.496996 1.06959 0.175694 -0.496117 0.643189 -0.378865 0.654126 -0.497316 -1.34513 -1.44262 0.0810971 1.02517 -0.980367 -0.0538598 -0.221895
18 0.668688 0.060185 -0.711378 0.0700379 -0.508197 -0.002088 0.560114 -0.255585 -0.69378 0.249363 -0.578716 0.754373 -0.00701118 -1.20422 -0.862252 0.208116 0.753698 -0.652538 -0.282987 0.0104582
22 0.781496 0.125393 -0.88643 0.140677 -0.481384 -0.0388291 0.786672 -0.258404 -0.75653 0.261301 -0.62175 0.788581 -0.0171194 -1.31392 -0.90921 0.18201 0.795127 -0.677514 -0.305622 -0.0451161
13 0.7334 -0.0334469 -0.717589 0.00120826 -0.595415 0.107188 0.501432 -0.277228 -0.782507 0.222515 -0.471395 0.682356 -0.0346533 -1.21558 -0.955609 0.274083 0.871956 -0.4628 -0.289755 0.211128
17 0.516807 0.0345098 -0.412076 -0.270885 -0.359249 0.429471 0.691049 -0.263148 -1.01968 0.820732 -0.735105 1.09293 -0.0674297 -1.53309 -1.04614 0.0168923 0.519096 -0.994757 -0.316369 -0.0769541
21 0.241009 0.289549 -0.900359 -0.0538344 -0.0135183 0.197038 0.678507 0.0860266 -0.442875 0.333806 -0.161624 0.549674 -0.283977 -0.993557 -0.951994 0.179489 1.13334 -0.985977 -0.103385 -0.139172
12 0.461153 0.0207147 -0.201395 -0.204833 -0.293453 0.213594 0.371902 -0.166775 -0.638028 0.442998 -0.478686 0.696026 -0.0177269 -1.08831 -0.885486 0.176062 0.888113 -0.848924 -0.348361 0.0372558
