14 24
1 -0.260339 -0.345266 0.114194 -0.184796 0.0622798 0.326991 0.0612397 0.396024 -0.474343 -0.227836 -0.225916 -0.00716066 0.0808249 0.033801 0.219312 -0.0835195 0.219753 0.136669 0.386043 -0.182791 -0.134536 0.103224 -0.0105941 0.467569
4 -0.292902 -0.348746 0.156618 -0.190846 0.0758004 0.39207 0.0798534 0.475013 -0.548871 -0.277438 -0.297122 0.012737 0.102611 0.09953 0.247693 -0.0871533 0.252922 0.128245 0.392532 -0.197973 -0.133839 0.086301 -0.0156702 0.470309
5 -0.257299 -0.324778 0.12148 -0.196377 0.0552907 0.368373 0.066498 0.424381 -0.518975 -0.265908 -0.256587 -0.00685697 0.0935883 0.0698094 0.204128 -0.0980372 0.243394 0.13177 0.402582 -0.183994 -0.114044 0.0872273 -0.00791576 0.489015
6 -0.291636 -0.347228 0.149679 -0.167967 0.0683854 0.374878 0.0679224 0.45056 -0.511999 -0.23893 -0.305861 -0.0168731 0.125866 0.0774401 0.205941 -0.0947735 0.239746 0.116408 0.404563 -0.183032 -0.136639 0.0959947 0.00485686 0.473031
8 -0.324138 -0.298692 0.199781 -0.233759 0.121404 0.400808 0.0602684 0.45089 -0.56475 -0.227375 -0.428864 -0.0266175 0.175678 0.17612 0.235529 -0.117663 0.327871 0.164051 0.396929 -0.173546 -0.12915 0.0592521 0.00551283 0.511432
7 -0.35743 -0.345115 0.179578 -0.220477 0.118201 0.430003 0.061041 0.466659 -0.562783 -0.272613 -0.422297 0.00528158 0.196874 0.157203 0.241624 -0.109704 0.331384 0.13854 0.422768 -0.177697 -0.159516 0.0553455 0.0277978 0.543486
14 -0.342859 -0.340736 0.146698 -0.228565 0.0771059 0.406016 0.0541181 0.463998 -0.550259 -0.26417 -0.339118 -0.0127329 0.176196 0.141708 0.220433 -0.0966618 0.301132 0.15663 0.437962 -0.168773 -0.117617 0.0554711 -0.00838552 0.515991
13 -0.244394 -0.311789 0.143437 -0.18473 0.0635894 0.2821 0.0761798 0.369719 -0.428431 -0.190093 -0.211571 0.00633761 0.121275 0.085395 0.206701 -0.0965613 0.222921 0.119518 0.355693 -0.158624 -0.114166 0.0776426 -0.0225933 0.418113
3 -0.290805 -0.374023 0.174272 -0.191563 0.0911157 0.416092 0.0844702 0.487462 -0.558371 -0.262535 -0.289184 0.0135172 0.113759 0.0729819 0.255746 -0.0726367 0.24566 0.138115 0.428144 -0.194336 -0.159431 0.0880301 0.0046067 0.525635
2 -0.242916 -0.320803 0.119205 -0.147317 0.0664915 0.317057 0.0590458 0.426232 -0.480079 -0.250578 -0.239908 -6.14956e-06 0.11094 0.0539409 0.207164 -0.060441 0.215719 0.134166 0.370531 -0.153872 -0.0980504 0.0706541 0.01241 0.434703
10 -0.396688 -0.362592 0.212472 -0.25368 0.131919 0.474694 0.0599093 0.49784 -0.639069 -0.264255 -0.483008 0.00477517 0.212675 0.180326 0.280606 -0.139791 0.336993 0.191589 0.457085 -0.176563 -0.159519 0.0761686 -0.00418755 0.578799
11 -0.318937 -0.297187 0.189684 -0.207461 0.125096 0.378613 0.0291477 0.407318 -0.527148 -0.236427 -0.404813 0.0131734 0.162104 0.159823 0.220047 -0.125145 0.300359 0.143633 0.372223 -0.135809 -0.155216 0.0523858 -0.00548531 0.470628
12 -0.345218 -0.332122 0.200899 -0.245611 0.130924 0.441222 0.0310023 0.461559 -0.569976 -0.262841 -0.441633 -0.017421 0.170577 0.176082 0.232513 -0.134045 0.334241 0.158192 0.431186 -0.158165 -0.154997 0.0429164 0.0213666 0.541299
9 -0.334188 -0.287146 0.167379 -0.205401 0.123081 0.394409 0.0517848 0.425506 -0.516401 -0.236811 -0.402279 -0.020204 0.147934 0.125281 0.232646 -0.111315 0.31141 0.135285 0.39982 -0.172759 -0.117438 0.045834 -0.00436698 0.50126
